solver_type L2R_L2LOSS_SVR
nr_class 2
nr_feature 14845
bias -1.0000000000000000
w
0 
-1.3630228878779900 
-0.25005822889784780 
-1.7961754349523230 
-0.28843374382978880 
0.044128882319241480 
1.8827614687307404 
0.49648402689149790 
-0.40452876803964340 
-0.64939172301517320 
-0.82683626095451670 
0 
-0.14269021517539288 
-0.10549397854392106 
-1.4550373836697996 
-0.76889470425624270 
0.97316127819610820 
-0.27730690472939135 
-0.33064227350438910 
0 
-0.059217326046793514 
-0.16001181716903515 
-0.79905691569954430 
-0.059772807046524810 
-0.55461922384319910 
-0.19356449300265147 
-0.18379204864215354 
-0.92589765374740130 
-0.51026225639444600 
-0.29330334507540756 
-0.20640312549154163 
0 
-0.68010839562746980 
-0.035045858136428620 
0 
-0.36951497609605830 
-0.82297325493621910 
-0.64809684504398360 
-0.26801579138210035 
-0.13302201610643190 
0.20494699714029620 
0.23743510338786250 
0.14860617095540318 
-0.022488502880327173 
0.24115847524776507 
-0.61000887444511010 
-0.72132151160903050 
-0.64312669048830720 
-0.87896108962542960 
-0.95098302937251230 
-0.075562655789051680 
-0.060887536303470595 
-0.20553304130566535 
-0.39853086228523080 
-0.78901696124781130 
-0.71879899208982060 
-0.66169260480962850 
0 
-0.17362540336130580 
-0.075162800169045720 
1.1697114633192820 
-0.19056776208251147 
-0.042775997906655060 
0 
-0.38222056915036107 
-0.96707135397527950 
-0.45546732711919413 
-1.1620686080084448 
-0.11049214631875631 
-0.59364936494869140 
-0.17326587131936236 
-0.83040542116386770 
-0.24545393658735565 
0 
0.040163674513685570 
0 
0 
0.46495489211548720 
0 
-0.28700476344968584 
0 
-0.32764228894839090 
-0.060062218027530985 
-0.51470601238579520 
1.2782997875261823 
0 
-0.036367904722755535 
-0.44088195768272680 
-0.39340236786324760 
-1.0991998073804372 
-0.82203897983063180 
-0.00057229304548385130 
-0.21463377044878737 
0 
0 
0 
0 
0 
0 
0 
0 
-0.011448445380146263 
-0.11016681544541529 
0.034485224114599590 
-0.070855262488829450 
0 
0 
0 
-0.74002750799847210 
0.12751455593422348 
0.27331157940292010 
-0.17650610780142115 
-0.28792756769978695 
0 
0 
-0.10059006554316100 
-0.064438824345798560 
-0.48560734220685080 
-0.053394479592567000 
0.78185233210305360 
-0.39586062021723110 
-0.95180646636414670 
-0.26813982478722650 
-0.69877853200885900 
0.74377760978448280 
0 
-0.063316663027442970 
-0.091517243628461860 
-0.19029626342221911 
0 
-0.16463204788119226 
0.34556204572129934 
-0.88171672705145480 
-0.10025773459299686 
0 
0 
1.3067596866580710 
0.35154055848168303 
-0.26866381146445506 
0 
-1.1682360039794322 
-0.064482845085342370 
0 
-0.22793155607509052 
0 
0.014493618421945277 
-0.10965728134414131 
-0.091130381040625010 
-1.0734250872238290 
0 
-0.097272088694295030 
-0.42699680206874440 
0.21507686328709760 
1.8918459481109666 
0.027988409942173074 
-0.27503515268355117 
-0.30220395793628880 
-0.74005942311383380 
-0.58664612488284180 
-0.096371646087434470 
-0.076186424379861500 
0.15455801950787398 
0 
0.46047183310495050 
-0.11917619029042871 
-0.62851600895316270 
-0.65328824127877770 
0.11617164057327904 
0 
-0.29278125629778080 
0.54221015973469130 
0.81043358448836600 
0.33060185178884650 
0.88530400088344020 
0 
-0.41451595035097216 
-0.12192436756109047 
-0.038139133885197640 
-0.032919047825037160 
-0.31147136403944300 
0 
-0.14234349683552760 
0 
-0.087302543491299640 
-0.032754585332079690 
-0.36229087278075640 
-0.59400934986601940 
-0.30516729130011694 
0 
0 
-0.19311226218563654 
-1.0340856172286510 
0 
0 
-0.82522532581111160 
-0.24850243009377870 
-0.31265507192266480 
-0.064168319059508100 
-0.34363504904452785 
0 
-0.59802380847840150 
0 
-0.072210613855688320 
0 
-0.010651998013243472 
-0.087764970293783540 
-0.084048973012059300 
-0.21963918950166444 
-0.18354369191995776 
-0.79869410168223600 
-0.087316400507923960 
-0.033746197013798150 
-0.044299658099065310 
0 
0 
1.2028676708834163 
-0.076738945259591050 
-0.53285613579814440 
0 
0.043053677150557900 
0 
-0.041949561731828710 
-0.062656914562834970 
-0.73977641590811490 
-0.072757114565612730 
-0.22002563301880768 
0 
-0.18134803562720542 
-0.023464123189808922 
-0.19408367127362944 
0 
0 
0 
-0.078632803144479920 
-0.24010687966781086 
-0.082590945131516870 
-0.094111576557313990 
-0.38536363970499954 
0 
-0.63187793058352780 
-0.81169184724401590 
0 
-0.070593621440916220 
0 
-0.035557870341850680 
-0.35837619608229315 
0 
0 
-0.40329454139589920 
-0.24693335252120482 
-0.023590960520562622 
0 
0 
-0.045933081388970590 
0 
0 
0 
0 
-0.043757512616944230 
-1.1743672131535636 
-0.12391059617461127 
-1.6586888140433502 
-0.070614341427473000 
0 
0 
-0.64891623218313350 
-1.1460779459068358 
-0.059921345351277030 
0.47744281705544060 
-0.34954285400594980 
-0.24827568799691077 
-0.012100087991002290 
-6.0696462842906530 
1.0327424265483889 
0.96268393630369680 
1.6313159198954360 
-0.36110125530526554 
-1.2735694877583874 
-0.88241042084973910 
-0.30804012227259020 
-0.30791428421619377 
-0.20629588835059087 
-2.6690802218700180 
-0.70245093779248770 
-0.11541480854713619 
-0.57179283776273440 
-0.18176148132524686 
-0.75117862619672030 
-0.44143902888806125 
-0.17046250089305370 
-0.16740979817911128 
-1.2814537818773344 
-0.20629588835059087 
-0.74867763666317360 
-0.91767938905444680 
-0.98271692449718860 
0.70746335094409660 
-0.51732439211380590 
0 
-1.3601528431252488 
-1.2592945346795221 
-0.20657160617541712 
-0.51248485465923270 
-0.11972685220800222 
-0.10285014732756285 
-1.0475544204278235 
-0.13564247252539420 
-0.17475531550031790 
-0.63027082132719440 
-0.10853254721505236 
0 
-0.069526470987887990 
0 
0 
-0.51478538666600850 
-0.25526640015482760 
-0.23341747665972948 
-0.057946904070032930 
-0.89396328394065900 
0 
-0.058283687345090460 
0 
-1.0094879796565905 
-0.022565838827426810 
-0.22922669455850223 
-0.52754669487734760 
0 
-0.58533260035722630 
-0.53310069990875000 
-0.067083359407749650 
-0.82726008883989630 
-0.49321289476217450 
-0.36245419440227467 
-0.49991183440360850 
-0.052360211000715810 
0.18291224834067218 
0.48105349147381926 
-0.40346162311587620 
-0.39573270503705330 
-0.30760819314015940 
-0.16275149610239890 
-0.12446910272012209 
-0.69356346525225400 
-0.37729478363063385 
-0.20515497053243300 
0 
0 
0 
0 
0 
0 
0 
0 
-0.046534495499430555 
0 
-0.32994096209127390 
-0.055449487632923254 
0 
0.20434182610399687 
-0.015636977282062973 
0 
0 
-0.19311643346160070 
-0.49639159775555897 
0 
0.59033976397766640 
-0.96554398842331470 
-0.058002437357987950 
0 
-0.97094678962196620 
-0.98892306437783580 
-1.0212425036301076 
0 
-1.5058120887962767 
0.56574359005694790 
-0.63960167251610270 
-0.57674307880000430 
0 
-0.10834754738846801 
-0.24648635881368902 
-0.54647674136114120 
-0.20424006675085027 
-0.52475588166353400 
-0.47973162583103960 
1.7121789143223805 
1.3479686228981929 
1.3814064105593937 
0.29192091561491150 
0.17869742053740684 
0.00054785902725838290 
0.043088110634082940 
0.68890301460167500 
0.57135112301611700 
1.3182705222560962 
-0.29566359951905230 
0.013446260903842919 
0.33897423126608917 
0.29841285025339990 
0.68145671196824920 
1.1723652019076443 
0.96958442232798000 
0.37799592270620447 
0.21286958310242526 
1.4540486890077224 
0.70990942473268310 
1.0445940117053019 
0.68468380764227650 
-0.063359011013872520 
1.4783504033037311 
1.8432669165699573 
0.22095637368821870 
-0.18717465868182837 
-0.33147301778471680 
-0.41811429806255457 
-0.23791170964293087 
1.1630467668644415 
0.080617208872858560 
0.21518658121167608 
-0.033716213547690756 
0.37900944021685400 
0.21393350597760990 
-0.034474251208506500 
0.21982530035715200 
-0.18544664441609560 
-0.16957706710813364 
0.15462309875818775 
0.25163919481668320 
0.058293608818758580 
0.27195401190874680 
0.21697875826001498 
0.091894087208550520 
-0.65643159486740620 
0.23459879438048520 
0.18373389776495800 
-0.36867234255962870 
0.33989272771452520 
0.072388376317257820 
0.30472993098828216 
0.53608957315004240 
0.63451845518836410 
0.22227593686105454 
0.56044297535068250 
0.88590426835053590 
0 
0.46712389070504085 
0.22095637368821870 
0.22095637368821870 
0.99632019755958560 
0.53968204409107830 
0.37736767213888050 
1.3356893549150912 
1.4077549178961586 
0.56044297535068250 
0.38827196094333855 
0.56044297535068250 
0.34218319259504903 
0.43298685577590730 
2.5667288034915425 
-0.99904572208023570 
-0.52104142772490350 
-0.70407767190362770 
-0.63088561467405250 
-0.53036228481321200 
-1.4411115014499567 
0.22621870869316005 
-0.10351572696139659 
-0.40142740098389645 
-0.46563603417482620 
-0.39430662327820243 
-0.55989649274671590 
-0.053086934516595050 
-0.041802022174863560 
-0.56837617393835200 
-0.053086934516595050 
-0.053086934516595050 
-0.50043081062211560 
-0.56642282382768960 
-0.047444478394961750 
-0.17189139878062450 
-0.45850820926432650 
-0.51523071674151790 
-0.12540604747623535 
-0.18609546618177660 
-0.053086934516595050 
-0.047444478394961750 
-0.047444478394961750 
-0.053086934516595050 
-0.10083548561160940 
-0.32591244880022950 
-0.89556046799412640 
0.051362142402628630 
0.12701394917164957 
-0.31497294797761083 
-0.047444478394961750 
-0.91129185749525710 
0.75522340900768540 
-0.18623271915840695 
-0.42003804496377656 
-0.045901535718987170 
-1.0759341500568245 
-0.79027565938000210 
-0.25327378647124890 
-0.34251694578775266 
-0.62256754720565210 
-0.061242536998082620 
-0.49903799942117993 
-0.034343100642131550 
-0.036159565868012260 
-0.36505941803792114 
-0.74461752605323930 
-0.056139385494159430 
-0.30542434294847554 
-0.31874275273897420 
-0.38663645588553736 
-0.047444478394961750 
-0.047444478394961750 
-0.27633103282166366 
0.17281061605885112 
-0.10516912784117781 
-0.36031867618071395 
-0.17783036567109872 
-0.14654326590631820 
-0.053086934516595050 
-0.053086934516595050 
-0.21519347135394080 
-0.071614440109181830 
-0.053086934516595050 
-0.053086934516595050 
-0.28811448110895270 
-0.053086934516595050 
-0.14994056923250756 
-0.15744906688297097 
-0.058440148307194240 
-0.041802022174863560 
-0.053086934516595050 
-0.060553638938543900 
-0.10371964673924976 
-0.31181098815321850 
-0.13690176305402102 
-0.053086934516595050 
-0.26929913944529620 
0.020360964568877322 
0.60287167915303490 
-0.11139273602857468 
-0.26732860034516326 
-0.53062330256166080 
-0.034476160569960300 
0.95299064284165640 
-0.55935016684664760 
-0.30371410033056223 
-0.053086934516595050 
-0.044143853105445066 
-1.1099349792615667 
-0.30255072133696526 
-0.32885270491786117 
-0.98678599854814090 
-0.053086934516595050 
-0.053086934516595050 
-0.12719378095033024 
-0.43224998328572356 
-0.038157259688265610 
-0.16237266497143910 
-0.053086934516595050 
-0.053086934516595050 
0.75991026441918220 
-0.53918662038016290 
-0.43648676181014710 
-0.036159565868012260 
-0.85914102942786910 
-0.25661590890815120 
-0.10535980453767559 
-0.72585413851912730 
-0.70056319452774840 
-0.25855035981445080 
-1.1806746901907490 
-0.96729638243057690 
-0.36544497050030395 
-0.17623754535625720 
-0.27975663787383840 
-0.93771748659407750 
-0.16571584273740750 
-0.42883735646437643 
-0.048790438071243680 
-0.084015014306457180 
-0.15821287887869470 
-0.38941986044556680 
-0.13995990525144608 
-0.053086934516595050 
-0.33801231396608233 
-0.053086934516595050 
-0.52149369268118650 
-0.47303451630331750 
-0.83062852537644730 
-0.43341019262582153 
-0.24773249567556490 
-0.054795850595463880 
-0.31727467042614420 
-0.079971109781384820 
-0.037246557309229990 
-0.039985556974419176 
-0.038501396833177895 
-0.14596087738467833 
-0.20155709427934884 
-0.22719444670695170 
-1.3305606515276285 
-0.13333965330221179 
-0.92545934962991320 
-0.054943044413398410 
-0.28858248922769114 
-0.82585051609349080 
-0.032858940481008250 
-0.053086934516595050 
-0.77469230172001580 
-0.46800828032123126 
-0.18966661021011180 
-0.41721882531128973 
-0.78520845912540670 
-0.053086934516595050 
-0.096788456822547180 
-0.053086934516595050 
-0.053086934516595050 
-0.14676682788847420 
-0.13044205095629740 
-0.044143853105445066 
-0.12580312703591964 
-0.053086934516595050 
-0.053086934516595050 
-0.33786285594452900 
0.88732551628709970 
-0.099255736011170900 
-0.75912986228104970 
-0.46788965789485920 
-0.47003710079804784 
-0.43491811425718385 
-0.053086934516595050 
-0.039230231988400324 
-0.090498361885985530 
-0.053086934516595050 
-0.80218446912551830 
-0.17156201191158868 
-0.053086934516595050 
-0.047444478394961750 
-0.094945476336881480 
-0.12095163634119858 
-0.13907047923768492 
-0.053086934516595050 
-0.52456231754737450 
-0.77803716136402610 
-0.29761781717470803 
-0.67375075865923110 
-0.15356317631435185 
-0.33993219316881257 
-0.33036340345881690 
-0.41428243406090315 
-0.30765649365766706 
-0.047444478394961750 
-0.058892923125523750 
-0.16055112905988820 
-0.20810386925382550 
-0.021119239798327940 
-0.038501396833177895 
-0.077002789945969360 
-0.39971458466984083 
0.67521787347719750 
-0.42082666974304195 
-0.53627986740589250 
-0.48800111497780790 
-0.57434874629645770 
-0.068633213785310930 
-0.23024669786583904 
-0.053086934516595050 
-0.053086934516595050 
-0.082918092745576430 
-0.49216355170216500 
-0.047444478394961750 
-0.053086934516595050 
-0.067400483615916090 
-0.34240380842375606 
-0.086287814241122450 
-0.054795850595463880 
-0.54967954603102000 
-0.75156161340050520 
-0.047444478394961750 
-0.54462442467847560 
-0.053086934516595050 
-0.047444478394961750 
-0.11770822290264986 
-0.053086934516595050 
-0.049685856245160590 
-0.42557024910190040 
-0.59932730575908220 
0.49942916155190490 
-1.6558616269576945 
-1.2301845389978912 
-0.23001893281026833 
-0.46762503144472684 
-0.28696064801404786 
-0.054634345193763450 
-0.59036353958000780 
-0.095223857475855280 
-0.66132686570047280 
-1.1860785809024514 
-0.64845791730578180 
-0.34492544376129747 
-0.16779819050276526 
0.060270536415748890 
-0.12686256420751024 
-0.56949404695844120 
-0.16050669205172688 
-0.35228593479400140 
-0.16779819050276526 
-0.84161850223110750 
1.1908070815418500 
-0.20120079862145257 
-0.26864871307544430 
-0.095223857475855280 
-0.088599309554068240 
-0.13348161395864310 
-0.095223857475855280 
-0.64327602278680610 
-0.056907451170483730 
-0.080253365779712110 
0.25550677704540403 
-0.10759437413762594 
-0.095223857475855280 
-0.095223857475855280 
-0.095223857475855280 
-0.095223857475855280 
-0.75337121558909230 
-0.16779819050276526 
-0.16779819050276526 
-0.20347337153708050 
-0.11108780950556219 
-0.070650020730065240 
-0.10006957974896473 
-0.088599309554068240 
-0.095223857475855280 
0.72092421420139220 
0.18789956120659881 
-0.095223857475855280 
-0.095223857475855280 
-0.095223857475855280 
-0.78422199534066160 
-0.095223857475855280 
-0.98426122609627810 
-0.13289894771935610 
0.19530398354125983 
0.037234073422423075 
-0.64100226320978980 
-0.053274303876034254 
0.34461196528356747 
-0.015639040644621127 
-0.036881395524872300 
-0.092900841547321980 
-0.24977306148303896 
0.14836184841646580 
-0.32689807700436660 
-0.21172440844091017 
-0.038637286906818180 
-0.74331349657320140 
-0.20063332801855552 
-0.43497772894151120 
-0.053274303876034254 
-0.28945933271005000 
-0.14386349465945852 
-0.14213072830090573 
-0.40419567879488927 
-0.69635136246356400 
-0.070807566635995260 
-0.053274303876034254 
-0.71480862951209570 
0.97818008120167190 
-0.047611932862263810 
0.0016943271722613417 
-0.34850689419334730 
-0.095223857475855280 
-0.95507662784732050 
0.028677935327327560 
-0.053274303876034254 
-0.38335050983297720 
-0.11179204442743390 
-0.053274303876034254 
-0.053274303876034254 
-0.053274303876034254 
-0.059060377712678700 
-0.053274303876034254 
-0.037378018453511360 
0.26655667043319040 
-0.053274303876034254 
-0.047611932862263810 
0.10815020237943751 
-0.053274303876034254 
-0.069329852172121970 
-0.053274303876034254 
-0.010548257978269302 
-0.053274303876034254 
-0.061299137726069460 
0.29570930991832156 
-0.69141466641470870 
-0.82232828522626320 
-0.16756390765653364 
-0.11549275196910172 
-0.57642610079808860 
-0.31903121037246074 
-0.10743869539702555 
-0.041949561731828710 
-0.047611932862263810 
-0.68629238540283180 
-0.047611932862263810 
-0.053274303876034254 
-0.55534262242108700 
-0.053274303876034254 
-0.035325012049412574 
-0.053274303876034254 
-0.43392889333174200 
-0.053274303876034254 
-0.073905522065338510 
-0.55925950878894990 
-0.042482626521923060 
-0.038637286906818180 
-0.41044357815194070 
0.71003167121188020 
-0.36330134664348684 
-0.25022922786142116 
-0.16994542986223962 
-0.053274303876034254 
-0.21915169404119820 
-0.11621449670216948 
-0.081072328486506060 
-0.27209843417679790 
-0.42763378920259620 
-0.33637308937901630 
-0.053274303876034254 
-0.25461710998817920 
-0.17330723664009365 
-0.47469011750834780 
0.18658857612224500 
-0.034464314095361240 
-0.10589561639968507 
-0.097990256276551710 
-0.33532466583158677 
-0.14841701335624020 
-0.21722069207852998 
-0.63463039644591870 
-0.053274303876034254 
-0.66757087429745630 
-0.38959201164364465 
-0.13028388393029322 
-0.13196667667903142 
-0.44980372090457220 
-0.057527760909779970 
-0.041949561731828710 
-0.22150282432500285 
-0.072944050799081310 
-0.11615780142389144 
-1.0618362567077133 
-0.12096191611112780 
-0.12051196762520688 
0.035261836309608545 
-0.053274303876034254 
-0.20716938649912556 
-0.053274303876034254 
-0.094993362844102910 
-0.040903841920057256 
-0.040126685358723484 
-0.053274303876034254 
-0.053274303876034254 
-0.038637286906818180 
-0.88541244043344650 
-0.053274303876034254 
-0.053274303876034254 
-0.096642424899946820 
0.83329665300874230 
-0.42222829398172430 
-0.17415158384480590 
-0.047611932862263810 
-0.48582140542272060 
-0.87002766457965200 
-0.23435394086569644 
-0.14478332005306270 
-0.32305191672849740 
0.0078642078030271000 
-0.25696093515901874 
-0.29617057712159245 
-0.48372256282237347 
-0.32828236265177210 
0.022902367987655194 
-0.42665243599987050 
-0.74403727681541440 
-0.45268042135772435 
0.072661977915892210 
-0.053274303876034254 
-0.13996749861585114 
-0.053274303876034254 
-1.8967712000246846 
-0.044299658099065310 
-0.031715647147423450 
-0.21363641852931226 
-0.47688748754498655 
-1.3183574530354074 
-1.3030882575474894 
-0.67818695444916810 
0.33357252171276913 
0.58194439800766330 
-0.11093932403044042 
-0.068600355119272180 
-0.10123857963836104 
-0.10123857963836104 
-0.24559293429830387 
-0.35721484738547650 
-0.040582822538083650 
-0.073316824110655930 
-0.36956948952182256 
-0.11957382446034487 
-0.091702032923567360 
-0.48161187334315040 
-0.040582822538083650 
-0.033464633731541064 
-0.29575309704959996 
-0.21238511909581018 
-0.082600837881936490 
-0.69837216717664980 
-0.10551968429470493 
-0.32889147152893660 
1.0174084583429424 
-0.32752530686119546 
-0.040582822538083650 
0.090333225000852810 
0.31227622677342654 
0.81423619762244340 
0.13915677622128540 
-0.16182617732004553 
0.73128853467729280 
-0.075171759078862930 
0.36733501212073940 
-0.033746197013798150 
-0.096409806275293460 
-0.80688093774528870 
-0.036269392095666556 
-0.063229914953928030 
-0.040582822538083650 
-0.39197730448075620 
-0.040582822538083650 
0.29050304032979385 
-0.040582822538083650 
-0.20971644408962100 
0.19093452118972776 
-0.040582822538083650 
-0.036269392095666556 
-0.33669483512795484 
-0.035328515667279760 
-0.040582822538083650 
-0.44335510030494557 
-0.52062056079077000 
0.021594033938800248 
-0.094553076868291130 
-0.26571907912362580 
1.6259895007915675 
-0.30715690149576347 
-0.17215076056717257 
-0.052129343649384624 
-0.38590653527528730 
-0.16882266325209430 
-0.088298291919134100 
-0.33198916673220930 
-0.23143499945619814 
0.011705101775610034 
-0.22456842717274828 
-0.69139510188942520 
-0.072538780652316310 
0.34182730826173324 
-0.11510619126973620 
-1.3116769789737328 
-0.18702733445801065 
-0.072538780652316310 
-0.18403957159830440 
-0.12218073029450560 
-0.78060808245410640 
-0.23252633167505599 
-0.040582822538083650 
0.077499698648496640 
0.059885279655042540 
-0.040582822538083650 
-0.48090659145916487 
-0.018574010532799848 
-0.040582822538083650 
-0.056234699255819970 
-0.030567347132655312 
-0.040582822538083650 
-0.10557360100825507 
-0.031955961603195660 
-0.23118402699377347 
-0.13304748994706792 
-0.68673870570734690 
-0.33431905501540080 
-0.062510786881293600 
-0.036269392095666556 
-0.13787770762543840 
-0.22442636964906434 
0.68115179188353840 
-0.11406388650272929 
-0.040582822538083650 
-0.57125990028077630 
-0.50646618803356860 
-0.040582822538083650 
-0.16432292749454067 
-0.17226879424851319 
0.98645372563147380 
0.30669424365531034 
-0.040582822538083650 
-0.23285235535466875 
-0.033746197013798150 
-0.040582822538083650 
0.34489577248014960 
-0.040582822538083650 
-0.040582822538083650 
-0.39113179778962100 
-0.36850816858229396 
-0.11987653152035548 
-0.26890511489121205 
-0.040582822538083650 
-0.036269392095666556 
-0.028473492231691808 
-0.047038454815421835 
-0.29368128198632854 
0.20329360768316138 
-0.68732287543278970 
-0.061134692146825160 
-0.026909571372520490 
-0.27268330149851860 
-0.036269392095666556 
-0.36511983244646357 
-0.067492391177025180 
-0.30548671546207185 
-0.51876389410546010 
0.70920252128947200 
-0.040582822538083650 
0.47740422297272367 
-0.054017055238964544 
-0.036269392095666556 
-0.44132828509158780 
-0.23619049054059715 
-0.040582822538083650 
-0.040582822538083650 
0.094174554459751380 
-0.040582822538083650 
-0.040582822538083650 
-0.086310438223382910 
-0.19002029460997308 
-0.28722461127616483 
-0.14022510557259904 
-0.049697266834756025 
-0.036269392095666556 
-0.040582822538083650 
-0.072538780652316310 
-0.14903861555685430 
-0.12344608561116288 
-0.22297237395697450 
-0.11240769021699203 
-0.11240769021699203 
-0.072538780652316310 
-0.10689189917567471 
-0.071885329817240830 
-0.16678711401919222 
-0.077260178548257120 
-0.025119335935198620 
-0.19446477630417708 
-0.040582822538083650 
-0.045764344734047384 
-0.22319160007732820 
-0.19364793293845878 
-0.040582822538083650 
0.49371035344677760 
-0.068777200532646440 
-0.22280144207451370 
-0.040582822538083650 
-0.040582822538083650 
-0.036269392095666556 
-0.040582822538083650 
-0.063304129806492660 
-0.43517744389118670 
-0.14961018580407304 
-0.036269392095666556 
1.7707614796912237 
-0.39356493753372473 
-0.058658768482547300 
-0.28093963598929944 
-0.040582822538083650 
-0.035314897760347900 
0.029152564415595293 
-0.040582822538083650 
-0.072538780652316310 
-0.24154996403544010 
-0.036269392095666556 
-0.20727621871759574 
-0.040582822538083650 
-0.42858041064285980 
-0.57294634556004340 
-0.029432766494807460 
-0.075348770377344080 
-0.16542619528804828 
-0.040582822538083650 
-0.18191185892896760 
-0.036269392095666556 
-0.036269392095666556 
-0.040582822538083650 
-0.13169756000155950 
-0.040582822538083650 
-0.11500549806076009 
-0.040582822538083650 
-0.040582822538083650 
-0.26985890971058290 
-0.70151488563090540 
-0.82385335919920390 
-0.39265724657104717 
0 
0 
0 
0 
0 
-0.059218275436657040 
0 
-0.14968545683436724 
-0.62426681246637470 
-0.15848616631111284 
-0.32209449144336170 
-0.52787384653847100 
0 
0 
-0.33808270460597595 
-0.48957537771251340 
-0.16297205429685152 
0 
0 
0 
-0.34456743782092970 
-0.080758590471983760 
0 
0 
0 
-0.28381327736929160 
0 
0 
0 
0 
0 
0 
0 
-0.11207056310862137 
0 
0 
0 
-0.37263406543456373 
-0.16383765663128977 
0 
0 
0 
-0.47760109046405685 
0 
-0.17516440353122330 
0 
0 
0 
0 
0 
0 
0 
0 
0 
0 
0 
0 
0 
0 
0 
0 
-0.034949709289673205 
-0.18958320450723876 
0 
-0.45504496832793934 
-0.089808347630219680 
0 
-0.10074460967310132 
-0.28548460856843977 
-0.20442187350997865 
-0.042775997906655060 
0 
0 
0 
-0.039800150221904265 
-0.042775997906655060 
-0.25951788573277220 
-0.23995082199587990 
0 
0 
0 
0 
0 
0 
0 
0 
0 
0 
0 
0 
0 
0 
0 
-0.41999364278854767 
-0.39679139383530080 
-0.20507507511160980 
0 
0.42628738676492170 
-0.15139941739491042 
-0.079445122008053600 
0 
0 
-0.14715476200407807 
0 
-0.020370113787874348 
0 
0 
-0.17627374441254534 
-0.23043403106488752 
0 
-0.026036391543894036 
-0.22528966874658518 
-0.67510805839884570 
-0.31389339272103690 
0.77918092520104000 
0 
-0.12883063450303710 
0 
-0.048067498111213795 
-0.42718342528778447 
0 
0 
-0.044195067556372130 
0 
-0.11821415310947200 
0 
-0.13626045250865748 
0 
-0.016512991322473736 
0 
-0.20376762405855614 
-0.052171234181971435 
0 
0 
-0.042775997906655060 
-0.014957488002528337 
0 
-0.20649935471246650 
-0.031488583407809140 
0 
-0.57820778152840160 
-0.22986203454057474 
-0.32354212172475516 
0.75916616583524750 
-0.17463924982492093 
0 
-0.11187451113646762 
-0.063341253162786470 
-0.60733643637528110 
-0.33439277687141120 
-0.57929228884016730 
0 
0 
0 
-0.11465352399028475 
-0.075741782571063080 
-0.47016880058277727 
-0.055449487632923254 
0 
0.18521845112419390 
0 
0 
0 
0 
-0.082705523684641240 
-1.1155920023508323 
-0.046344856099385020 
0 
-0.13697896224943656 
-0.058747285151430560 
-0.063143944438270290 
-0.11019066077847779 
-0.095376808116723440 
0 
0 
-1.3032863005918383 
-0.27959782279239130 
-0.25232933359893040 
-0.13636631834156130 
0 
0 
-0.011448445380146263 
0 
-0.15237764824812350 
-0.041060629281937280 
-0.73005827800419800 
-0.059917218059069890 
0.027498879433192950 
0 
0 
-0.19021837312405360 
0 
0.010497619811789857 
0 
-0.36254775077184970 
-0.33476784634782380 
-0.99037072735184940 
0 
0 
0 
0 
-0.38917615322815670 
-0.36489211138889300 
0 
-0.44116853936658684 
0.039238088762967320 
-0.22188332435794840 
-0.25887152215977260 
-0.30884680857480590 
0 
0 
-0.19721729152097872 
0 
0 
0 
0 
-0.17273011416669530 
0 
-0.093610964254386200 
0 
0 
0 
0 
0 
-0.0011945600027416382 
0 
0 
0 
0 
0 
0 
0 
0 
0 
0 
0 
-0.39284608539299840 
0 
0.53873620103579820 
0 
0 
0 
0 
0 
-0.33601142070519430 
0 
-0.023590960520562622 
0 
-0.17291261698599578 
-0.024403821014473220 
0 
0 
0 
-0.11293553983781318 
-0.018887664783019637 
0 
-0.21977404538909107 
0 
0.019998637083080924 
0 
0 
0 
0 
0 
0 
0 
0 
0 
0 
0 
0 
0 
0 
0 
0 
0 
0 
0 
0 
0 
0 
0 
0 
-0.12087857567946049 
0 
0.20149783658519382 
0.44609630052617727 
0 
-0.55208977626117020 
0 
0 
-1.4793361178828235 
0 
0 
0.85772535811467480 
-0.16638118540717480 
-0.48122212499532240 
0.33273436964566244 
1.7058466098967222 
-0.13339066714346326 
1.8107780028908838 
1.7580660949501460 
1.1197012516012401 
1.3363913041273419 
-0.66122897201695060 
-0.58229273623610690 
-0.27049958988492350 
-0.28269036458079505 
-0.27049958988492350 
-0.48349741389776246 
-0.48349741389776246 
-0.32948245180036470 
-0.27049958988492350 
-0.71215141025885650 
-0.32135046363133200 
-0.66766880328726830 
-0.26852421885244090 
-0.62907081151671250 
-0.54102307515607380 
-0.27049958988492350 
-0.29577234443407360 
-0.27911136861819040 
-0.13788789576874140 
-0.27049958988492350 
-0.54888115239603960 
-0.23057672908802930 
-0.27049958988492350 
-0.27049958988492350 
-0.31967911246816630 
-0.18227116941378150 
0.0045960057319877710 
-0.31810692731988660 
0.68971707292985980 
-1.1461122178771300 
-0.72965574488102150 
-0.93952217300959660 
-0.72183379721943330 
-0.54487939815719500 
-0.54487939815719500 
-0.54487939815719500 
0.71435640325421920 
-0.19684272681195808 
-0.53501624654087070 
-0.29629614732127560 
-0.61498323747728780 
-0.64474800320939500 
-0.11443170994490415 
-0.19397975853550445 
-0.37427986698659965 
-0.14062275305882120 
-0.10005480205891330 
-0.29629614732127560 
-0.17576646294251538 
-0.31266802671957167 
-0.23467147904508073 
-0.12506341345895952 
-0.15885756046744080 
-0.094071182652379560 
-0.078223851927592930 
-0.084072630283511820 
-0.55074584856360010 
-0.57119350394079830 
-0.56935469393570200 
-0.066001696619460600 
-0.094071182652379560 
-0.084072630283511820 
-0.078223851927592930 
-0.094071182652379560 
0.75081026090160310 
0.21406371169093755 
-0.094071182652379560 
-0.13453905097897498 
-0.25792027931956596 
-0.084072630283511820 
0.32689989356133890 
-0.094071182652379560 
-0.094071182652379560 
-0.32770891049566947 
-0.19688507494511906 
-0.30632031102874840 
-0.095369563294373100 
-0.094071182652379560 
-0.094071182652379560 
-0.094071182652379560 
-0.10182029119076604 
0.072780153173758340 
-0.066001696619460600 
0.75161274768259940 
-0.13734210366362726 
-0.21471836147928616 
-0.17468020602551060 
-0.21176805099674384 
-0.068225299043708930 
-0.19938088711020577 
-0.25090646434894540 
-0.094071182652379560 
-0.17173908869718480 
1.5618707285894893 
-0.18226394215287262 
-0.16186711774684442 
-0.40654819431132310 
-0.084072630283511820 
-0.55764126142889370 
-0.094071182652379560 
-0.13180010420048915 
-0.094071182652379560 
-0.094071182652379560 
-0.16814523675986934 
-0.070855262488829450 
-0.074074077577986620 
-0.094071182652379560 
-0.16814523675986934 
-0.055007930665656380 
-0.55023554362614220 
-0.094071182652379560 
-0.094071182652379560 
-0.24788254366218224 
-0.00082055878073259740 
-0.40603914806472270 
-0.34567140101659644 
-0.13253644161027670 
0.10063315541151860 
0.11169896577168645 
0.29878786966958100 
-0.12744356861571327 
-0.052727753019988610 
-0.021669651124534364 
-1.0935833563996700 
-0.11631706181840809 
-0.094071182652379560 
-0.46040858106096500 
-0.10440676956681406 
-0.58856905931436050 
-0.39453203510822166 
-0.094071182652379560 
-0.14905717554348640 
0.074552320254456270 
-0.22256658579581443 
-0.094071182652379560 
-0.35341516570252035 
-0.11315552580922650 
-0.71558691225127580 
0.67910654409139100 
-0.25632925639948584 
-0.53795581369437710 
-0.40034552689269640 
-0.40034552689269640 
-0.40034552689269640 
-0.40034552689269640 
-0.51916439015639750 
-0.35883306043967840 
-0.69678389197559700 
-0.53633965431179110 
-0.43856722187469350 
-0.40034552689269640 
-0.23432770043469206 
-0.044384765176734740 
-0.044384765176734740 
-0.028064799743890820 
-0.28697789285821090 
-0.026927837275809607 
-0.022210309214237473 
-0.044384765176734740 
-0.11058386021088810 
-0.11558536551047260 
-0.11072297059546284 
-0.11072297059546284 
-0.048826475066536326 
-0.044384765176734740 
-0.19096197142920518 
-0.11416369942931136 
-0.65468163535868450 
-0.036907660304686020 
-0.19985252235757162 
-0.19985252235757162 
-0.034699537258297030 
-0.074271693465267810 
-0.54901433973081580 
-0.60254838182978920 
-0.036907660304686020 
-0.13761049697549202 
-0.19371416788777407 
-0.15888802481241768 
-0.043079597235738720 
-0.085536392083837360 
-0.10722700140883996 
-0.032190132314511545 
-0.032190132314511545 
-0.034949709289673205 
-0.14352360142001042 
0.10650964340974110 
-0.10463080862020155 
-0.22442081844388756 
-0.044384765176734740 
0.59551168549204750 
-0.033431004490193590 
-0.080376021029854040 
-0.11044201123275435 
-0.15572486649638004 
-0.43999280920946280 
-0.23226757123537137 
-0.034949709289673205 
-0.10031673330231103 
-0.044384765176734740 
-0.039667237255850390 
-0.13135643492321533 
-0.55254630077510960 
-0.46511386686093825 
-0.028713476472410147 
-0.039667237255850390 
-0.085417404641950800 
-0.044384765176734740 
-0.033431004490193590 
-0.29009504880297070 
-0.063810496598875830 
-0.27002640935417566 
-0.036907660304686020 
-0.11742774760564942 
-0.044384765176734740 
-0.044384765176734740 
-0.030232181283590284 
-0.063837199375355130 
-0.50890327961091620 
0.46442774251908590 
-0.044384765176734740 
-0.30871254741383880 
-0.30871254741383880 
-0.30871254741383880 
-0.30871254741383880 
-0.30871254741383880 
-0.28713456413556110 
-0.49694053066052474 
-0.28713456413556110 
-0.30871254741383880 
-0.30871254741383880 
-0.30871254741383880 
-0.49694053066052474 
-0.49694053066052474 
-0.30871254741383880 
-0.32967094682760960 
-0.044384765176734740 
-0.044384765176734740 
-0.044384765176734740 
-0.044384765176734740 
-0.044384765176734740 
-0.044384765176734740 
-0.044384765176734740 
-0.044384765176734740 
-0.044384765176734740 
-0.30871254741383880 
-0.044384765176734740 
-0.044384765176734740 
-0.079334471309285380 
-0.30871254741383880 
-0.044384765176734740 
-0.28713456413556110 
-0.28713456413556110 
-0.28064781014841360 
-0.28713456413556110 
-0.28713456413556110 
-0.079334471309285380 
-0.98778710115668440 
-0.079334471309285380 
-0.064380262917682580 
-0.18220931008664712 
-0.37143276890481570 
-0.044384765176734740 
-0.15514042377676612 
-0.86801360667558950 
-0.36563538402913000 
-1.6178837147359340 
-1.2692388686284368 
-0.56342575826027890 
-0.11685316985940553 
-0.17153478851892326 
-0.15514042377676612 
-0.16756534233632733 
-0.58426464025227540 
-0.16897937133348212 
-0.15527776405651790 
0.19622966844388000 
-0.12885250933240547 
-0.12900530788101922 
-0.25674227453156856 
-0.17858132897664072 
-0.13347370865938743 
-0.15514042377676612 
-0.24866374531040375 
-0.18211311163988000 
-0.66298410338739460 
-0.28441091129083634 
-0.15514042377676612 
-0.32070817173967770 
-0.13865100196658306 
-0.18871319005969522 
-0.15514042377676612 
-0.15514042377676612 
-0.36953139016177844 
-0.15514042377676612 
-0.10567215426230372 
-0.48770193290943875 
-0.15514042377676612 
-0.13865100196658306 
-0.87418028339226180 
-0.15514042377676612 
-0.090718049339502120 
-0.15514042377676612 
-0.15514042377676612 
-0.15514042377676612 
-0.15514042377676612 
-0.26117766064281460 
0.11871712349092299 
-0.26806318518771505 
-0.14899275997975970 
-0.74582455659963460 
-0.15514042377676612 
-0.12900530788101922 
-0.15514042377676612 
-0.13865100196658306 
-0.23024084410159495 
-0.15514042377676612 
-0.15514042377676612 
-0.15514042377676612 
-0.45740291993217225 
-0.13865100196658306 
-0.44040117183416750 
-1.6210306302344000 
-0.33323119306612370 
-0.60133993921811220 
-0.61863635415953370 
0.26672912495748036 
-0.46507329086176570 
-0.26283009472230820 
-0.084768547575551190 
-1.0745389884179921 
-1.0022694704848076 
-0.33899374475720867 
-0.30621507051218850 
-0.26611334412729910 
-0.18643080485001193 
-0.18643080485001193 
-0.37710838498341415 
-0.42394209401250870 
-1.0286305119631443 
-0.12571642560449275 
-0.16661561657043470 
-0.17816332343534827 
0.77575650382770090 
-0.17877678888373580 
-0.25987443022646706 
-0.18643080485001193 
-0.18643080485001193 
-0.18643080485001193 
-0.18643080485001193 
-0.18643080485001193 
-0.18643080485001193 
-0.14680042772931687 
-0.22031455056450017 
-0.59497121875370930 
-0.31750242281039004 
-0.41340148590882136 
-0.33764096921070020 
-0.33764096921070020 
-0.38967118058443684 
-0.18889800592141423 
-0.18889800592141423 
-0.13522668500199470 
-0.33764096921070020 
-0.090083982964069030 
-0.20544242824673062 
-0.20618304607338006 
0.45291543322153155 
-0.18889800592141423 
-0.33764096921070020 
-0.33764096921070020 
0.017283262508197717 
-0.26184603237795595 
-0.29819639873917590 
-0.33764096921070020 
-0.28455925615091350 
-0.29748620701411077 
-0.15566664346300402 
-0.18889800592141423 
-0.18889800592141423 
-0.11188016960341626 
-0.43018449155847605 
0.49247547787889884 
-0.18889800592141423 
-0.18889800592141423 
0.64484769170431560 
-0.16438014890457558 
-0.050437762045815350 
0.76713590505762020 
-0.16189529590058774 
-0.090373604895651270 
0 
-0.15254475104764306 
0 
-0.043242772328714190 
0 
-0.30394742727528770 
0 
-0.053855104482001310 
-0.22008206043302922 
-0.025665270094882044 
0 
0 
-0.019702172029129796 
0 
-0.018543934573376780 
0 
0 
0 
0 
0 
0 
0 
0 
0 
0 
0.82932150726721000 
0 
-0.42199020125643644 
-0.082021133171327140 
0 
0 
0 
-0.079138263723771820 
-0.32081734926793860 
-0.29760274942830540 
-0.18785718896695253 
-0.061293179423364360 
1.0620822477076663 
0 
-0.21089004343602907 
-0.28954214537066114 
-0.093659984228115060 
-0.066561595144439130 
-0.053391346551427210 
-0.039147758759994740 
0 
0 
0 
0 
0 
-0.010651998013243472 
-0.11130526888020742 
-0.032180050762448044 
-0.14109451067781426 
0.50390847033522290 
0 
-0.23022291296179476 
0 
-0.11856431908500563 
-0.21524481825469102 
-0.068542588834861420 
-0.23226104216822596 
0 
-0.16576416542624990 
-0.18519984656888178 
-0.13710538818080095 
0 
0 
0 
0.10067576089978230 
-0.42924100209954420 
0 
0 
0 
-0.43585414873806516 
-0.29152219193741340 
-0.023907206119304806 
-0.21088487649893730 
0 
-0.17854162657446360 
-0.093042485322122700 
0 
0 
-0.097004102312110040 
0.41313150758347034 
0 
0 
-0.064482845085342370 
-0.17656312378396055 
0 
-0.023590960520562622 
0.29831224778576154 
-0.086519432071291800 
-0.27310482266083530 
-0.028183662887411563 
0 
0 
-0.35408949004237760 
0 
0 
-0.33904959261891876 
0 
0 
0 
0 
0 
0 
-0.42110012612063200 
-0.39049890779174660 
-0.22949739049058943 
0 
0 
0 
0 
-0.38682132304016803 
-0.23519752951063183 
0.28666300641377307 
-0.14583475930561024 
0 
-0.27548933662079966 
-0.091540053394056780 
0.24810584730992616 
0 
-0.038202022061749610 
0 
0 
0 
0 
-0.20582728745380713 
-0.031947303811824514 
-0.26602908454933850 
-0.069789589357192400 
0 
0 
-0.26343408570238913 
-0.26751444361070087 
-0.27493381856946530 
0 
-0.035916429930812274 
-0.36498707696887517 
0 
-0.41334359298526685 
-0.24419221271214930 
-0.61922921274339560 
-0.13012769074958480 
0 
0 
-0.026902837176778636 
0.70813404523088620 
0.18792189221218702 
0.53875454457346980 
0.28856015350500186 
1.2635969959479350 
0.50112575509157510 
0.42996296390633490 
-0.20911547447161813 
0.65399415030048260 
0.91147789237340420 
1.3684884145314624 
0.18034617420136417 
1.3654439194237280 
0.75764008432962650 
0.46735639862975510 
0.45877620312888523 
0.22537772191537042 
0.84165173400262740 
0.16656084526486756 
0.24208791778169725 
-0.13133943011661284 
0.90352747140056110 
0.61001269302170290 
0.49851936220755710 
0.49851936220755710 
0.49851936220755710 
0.59633168828351250 
0.64225426484628780 
0.097496294504557100 
0.17061096040962137 
0.039586538929848680 
0.23096871211091755 
1.7713273117850075 
0.33365952092992440 
1.2207579530649502 
0.85945099612128250 
0.60552238782925530 
0.096130422610300960 
0.92541881699432430 
0.21622869758294358 
0.19843187627352704 
0.20135709547920294 
0.10911438618435051 
-0.14537202873330612 
0.22038040895662480 
0.35997346406793040 
0.24612921663772735 
0.24612921663772735 
0.22486860237890505 
0.71487510125337880 
0.38252086896745086 
-1.0095307919960845 
-0.045962158915644230 
-0.56480251590056400 
-0.56480251590056400 
-0.61361618341164560 
-0.46965595597008974 
-0.71346913269243940 
-0.52097902041412700 
-0.97232223381066290 
-0.15211118287561373 
-0.44378039244772705 
-0.75363469009506670 
-0.52097902041412700 
-0.52097902041412700 
0.041471568590955920 
-0.13667983267829453 
0.041923123761302140 
0.30639090810011650 
-0.065765457688391580 
0.053265227785768180 
-0.31248306643277660 
0.084431126644689840 
0.48728975649019140 
0.47669544331655556 
0.24984252286588493 
0.32610020531390227 
0.15038659073926366 
0.37204538804365195 
0.92251809314406170 
0.041471568590955920 
-0.24320887859095658 
-0.47964844972378660 
0.016167981837879188 
-0.014526137436616583 
0.041471568590955920 
0.16875347690586870 
-0.12266497101911199 
-0.16327819529815468 
0.019975079944953254 
0.082330357658867810 
0.017168518326077510 
0.34231265639920620 
0.082739546221057300 
-0.079930661548233650 
0.026746364851137200 
-0.12770847139617608 
0.13062309100507430 
0.068970443233117630 
0.11722087881419858 
0.15841027115655595 
0.076486854126645220 
-0.0036539106067955737 
0.010028937436259197 
0.29424326424936930 
0.074127345833757590 
0.074127345833757590 
-0.020756744657042320 
0.44609104301074980 
0.076449382849696850 
0.080056901348419060 
0.058117847953614965 
0.033662751716514894 
-0.32085954365814630 
0.35549989894876194 
0.26828827267148964 
-0.020760829191284700 
-0.059273716429230550 
0.011700584251101251 
0.10345565235903250 
0.22719346767116794 
-0.023859543580437927 
0.10345565235903250 
0.94717627449171260 
-0.021475321804761076 
-0.15525116022909700 
0.074147772627860790 
0.051263008397030440 
-0.15259817023334907 
0.097967333103312780 
-0.11821864375603490 
0.10345565235903250 
0.090231980963841020 
0.097967333103312780 
0.041471568590955920 
0.037063676018204116 
-0.20841501479142494 
0.041471568590955920 
0.041471568590955920 
0.034485224114599590 
0.074127345833757590 
-0.065435704752276380 
0.41911243457595840 
-0.025875554841884904 
0.034485224114599590 
0.041471568590955920 
0.029097049465502137 
0.041471568590955920 
0.021588165965588952 
0.041471568590955920 
0.041471568590955920 
-0.30033037585738060 
0.044430521483249050 
0.041471568590955920 
-0.12318766780250161 
-0.12642430543919510 
0.041471568590955920 
-0.14707428515914775 
0.22158341617902750 
0.81573855448083940 
-0.41673576108019370 
0.041471568590955920 
-0.24864972783765340 
0.041471568590955920 
-0.064637555710432850 
-0.25809942622221170 
0.21858782526048848 
0.041471568590955920 
0.016167981837879188 
-0.029522216787569593 
0.025615230819632247 
0.043445037646775105 
0.0043912072607938760 
1.0322960096819873 
0.041471568590955920 
0.037063676018204116 
-0.24578261866079873 
0.012429810763474240 
0.041471568590955920 
0.041471568590955920 
0.041471568590955920 
0.25682652960525953 
-0.11691513633420296 
0.10455384991083550 
0.031236758854119168 
-0.49138647958887044 
-0.21087561578306640 
0.041471568590955920 
0.041471568590955920 
0.77869024897507310 
-0.40023712853436244 
-0.044963494773692776 
-0.0052334790327216210 
0.058717279245397790 
-0.32585727694666977 
0.041471568590955920 
-0.050145673073176050 
0.074127345833757590 
0.074127345833757590 
0.030077331407638738 
0.041471568590955920 
0.041471568590955920 
-0.20971667281880849 
1.0131415892818370 
0.44669491277797630 
-0.14841383826201220 
-0.33290155629271573 
-0.52659742407148920 
0 
-0.011448445380146263 
-0.026775279333216580 
-0.098421236116003790 
0.18240418076590326 
-0.024912572239984023 
-0.054315021198936400 
0 
0 
-0.20112929482579742 
0 
0 
-0.022565838827426810 
-0.042189157259237680 
0 
0 
0 
0 
0 
-0.28041278453990690 
0 
0 
0 
0 
0 
0 
0 
0 
0 
-0.018580924428315413 
0 
0 
-0.16085753381790985 
0 
0 
0 
0.019061712615634673 
-0.43298137012111480 
0.15236945593483184 
0 
0 
0 
-0.087698087048902350 
0 
-0.085767425983449570 
-0.90660608735601180 
0 
-0.066233317362646730 
0 
0 
0 
-0.082713122361373820 
0 
0 
0 
-0.39898267604748400 
0.88957168663276140 
-0.16248992195874015 
0 
-0.16938875171736806 
-0.014958003748769965 
-0.030925362506255962 
-0.23991116905295123 
0 
-0.75042409741805230 
0.063385242804565560 
-0.034104577046441290 
-0.28691135331356450 
0 
-0.026831192851822484 
-0.15415068296797610 
0 
-0.16765683304157494 
0 
-0.13314042602058937 
0 
-0.021453000285251580 
-0.19935862023324530 
-0.053663542914716080 
-0.10848599815146158 
0 
-0.16271250812985900 
-0.070671786824024680 
-0.18803904920844170 
0 
-0.021452604445732132 
-0.045398757533482720 
-0.030452879710336330 
0 
0 
-0.16945384101031094 
0 
0 
-0.052360211000715810 
-0.13945352853339343 
0 
0 
0 
0 
0 
0 
-0.040990787795595890 
0 
-0.61568025471108490 
0 
0 
-0.033887626134252280 
0 
0 
0 
-0.057633028458956340 
-0.070846387559111850 
0 
0 
0 
-0.22042391197904200 
-0.010651998013243472 
0.15191013196153275 
-0.34941367691743110 
0.59327378815388720 
0.69447740129994440 
-0.53165273594503190 
-0.36839528455727816 
-0.11328333415163301 
0 
0 
-0.11900005937768125 
-0.16029966987276262 
-0.44367310083716390 
0 
0 
0 
-0.16249448674554315 
0 
-0.11671187546785114 
-0.18941914472670193 
-0.10872508824293659 
-0.21531169920356213 
0 
0.043707319805910110 
0 
0 
0 
-0.16483575716519560 
0.43419587098768964 
0 
-0.17711313451616660 
0 
0 
-0.26425141086723110 
0.014552243196233342 
0 
-0.10673622776073029 
-0.099606317552617900 
0 
-0.11231333602571716 
-0.065772599953633200 
0 
0 
-0.063009031066389290 
0 
0 
0 
-0.18035111067258924 
-0.11462369656546295 
0 
0 
0 
0 
0 
0 
0 
0 
-0.17136366703524608 
0 
0 
0 
-0.080532568368262820 
-0.087263561825651600 
-0.27149174539647950 
0 
-0.091006395616795150 
-0.23046016358516339 
-0.18824739230053825 
0 
0 
0 
0 
0 
0 
0.0099071675359525740 
0 
0 
0 
-0.10941975342762869 
0.16378786932486303 
0 
0 
0 
0.21146327283453323 
0 
0 
0 
0 
0 
-0.011448445380146263 
-0.064559794395393430 
0.81895385139316470 
-0.086519822109840090 
0 
0 
0 
0 
0 
-0.14081760168702170 
0 
0 
0 
0 
-0.078722311634903940 
-0.076415805205335280 
-0.21164002664622440 
0 
-0.21186608403919657 
-0.13298397398037273 
-0.22315533487493158 
0 
0 
0 
-0.62335539098209820 
-0.59260698091505040 
-0.46440902946061396 
0 
-0.22548438200684526 
-0.11443283771710078 
0 
-0.39690565060806520 
-0.32953105193712340 
0 
-0.24217523052135580 
-0.39623677473320820 
-0.17038908615672488 
0 
-0.032883235365254025 
0 
0 
-0.17106974184652290 
0 
0 
0 
0 
-0.25270792920452760 
-0.11427871227411380 
0 
-0.21920986354959107 
-0.059218275436657040 
-0.17845152561097918 
-0.16114855898918126 
-0.0034170515777774650 
-0.0092904622453597440 
-0.47161686423651690 
-0.13095312294982620 
-0.21798331871131738 
0 
-0.14507497413951250 
0 
-0.25740562642500710 
-0.13607085685225084 
0 
-0.12935566656541210 
0 
0 
-0.35714795735402070 
0 
0 
-0.043365225450341220 
0 
0 
-0.10734811818644964 
0.025611196679709628 
0.50936730242830210 
0 
0 
0 
0 
-0.078894040700725430 
0 
-0.13199679984128923 
-0.058583852010646253 
0.60421427059722550 
0.058641932240472660 
0.046349874943886184 
0 
0 
0.15333951931137520 
-0.088393428831618200 
-0.030963780168183175 
0 
0.49910308387812150 
0 
-0.042569206945199330 
0 
-0.020929909278165248 
0 
0 
0 
0 
0 
0 
0 
0.052604432503606690 
0.019950683153344344 
-0.61901469028685840 
0 
0 
-0.76732448711556830 
-0.80567166012003990 
0 
0 
0 
0 
0 
0 
0 
-0.049120694206944340 
0 
0 
0 
-0.74346455848020760 
-0.42967874695762365 
-0.16513438534637020 
-0.11595517663863712 
-0.33966649993889175 
-0.39083816364155377 
-0.13427956981520936 
0 
0 
-0.069230751105633690 
-0.78272153431272660 
-0.012047882142520517 
-0.089791088934187680 
0 
0 
0 
-0.090803797516189500 
0 
0.32090666968047604 
0 
0 
-0.42332345272966126 
-0.061073013960562667 
0 
-0.078747572641397740 
-0.0089876670090148040 
0 
0 
0.0044581145644367205 
0 
0 
-0.16184406405690970 
0 
0 
-0.10329047869031927 
0 
0 
0 
0.028198614373443325 
0 
0 
0 
-0.41820090816240380 
-0.14507497413951250 
0 
0 
0 
-0.073366128175383400 
-0.065564139187712840 
-0.051807691062742710 
0 
-0.081229066070507340 
-0.027045155044941080 
0 
-0.60170608894973000 
-0.047775661993958590 
0 
0 
-0.13362007302390125 
0 
0 
0 
0 
0 
-0.057572000614873320 
0 
-0.080696767316598150 
-0.17906738410155296 
0 
-0.18280475013813310 
-0.10652548836338065 
0 
0 
0 
-0.011612129063870729 
0 
-0.22554875227720403 
0 
-0.022488502880327173 
0 
0 
0 
-0.036072369315353870 
0 
-0.16491384211993965 
-0.080500434741717720 
-0.25142802056346025 
-0.13510119945053042 
0 
-0.086519432071291800 
0 
-0.057019332600905080 
-0.17228044527586073 
-0.59649602583488760 
0 
0 
0 
0 
0 
0 
-0.20931772621240072 
0 
-0.030681147957019785 
0 
-0.019614027992392057 
-0.022488502880327173 
0 
0 
-0.26721467992388276 
0 
0 
-0.050166460245206960 
0 
-0.10202161639490742 
-0.019442019251432838 
0 
-0.30279760817981400 
-0.18402413630075923 
0 
0 
-0.10369522890337000 
-0.066537186538239240 
-0.17041822293191208 
0 
0 
-0.13827672315703804 
0 
0 
0 
0 
0 
0 
-0.043365225450341220 
0 
0 
0 
0 
-0.16383048607275750 
0 
0 
-0.11577853218049929 
0 
0 
0 
-0.71396362651007670 
0 
0 
0 
0 
-0.019442019251432838 
0 
0 
-0.038207904851059200 
-0.18200890258828423 
0 
0 
0 
0 
-0.058283687345090460 
0 
0 
0 
-0.15320235535283394 
0 
-0.081229066070507340 
0 
0 
0 
0 
-0.46741704172040280 
-0.085934251294068540 
-0.11742175973803474 
0 
0 
0 
0 
-0.097598127024280270 
0 
0 
0 
0 
0 
-0.053805672722274836 
0 
-0.057673187405510770 
-0.042876026928680346 
0 
0 
0 
-0.024169962892691067 
0.54223898064802920 
-1.0573013412862677 
0 
0 
0 
0 
0 
0 
-0.19598261123888064 
0 
0 
-0.066054922398085550 
-0.026775279333216580 
0 
-0.046928245297321310 
-0.23407174773302333 
0.11856524902986541 
0 
-0.15208293121841040 
-0.049229570515215246 
0 
-0.20603874702575686 
-0.028438593193982224 
-0.058283687345090460 
0 
0.083566258495105900 
0.48895669394925170 
-0.12030060450906986 
-0.017747663765342123 
0.065008424404573650 
0.43085971581023200 
0.012711656558551632 
-0.039865575397408495 
-0.49248726597521890 
-0.031505533144287830 
0.26111227599045660 
-0.024442549481271910 
-0.0078560928870571710 
0.036739896398019056 
-0.38218606933469020 
-0.13769198001934300 
0.044183012754730216 
1.0735215063027812 
0.044183012754730216 
1.0051652625435354 
-0.14596673042953700 
0.81915794691638030 
0.044183012754730216 
0.044183012754730216 
0.11021962037912400 
0.73180661595653250 
0.033279044131569124 
-0.029457828078862760 
0.63265509622797630 
0.17821887745016188 
-0.10722660392130764 
0.10837110062895791 
0.13143145356365796 
0.58872373579953940 
-0.043494352533056120 
0.91043791658029440 
0.23773275041270897 
-0.13955226520419414 
-0.32966087395625315 
-0.24943921484681114 
-0.32966087395625315 
-0.13955226520419414 
-0.32966087395625315 
-0.066228781027033070 
-0.43954746908199765 
-0.25864778587260845 
-0.40037612495443314 
-0.13955226520419414 
-0.35527546180587344 
-0.14246732264327122 
-0.18834870409250404 
-0.24943921484681114 
-0.19797095528523026 
-0.13955226520419414 
-0.14294597793562283 
-0.20500605675309005 
-0.22598675730418533 
-0.25118178383770250 
-0.18679316314110370 
-0.13955226520419414 
-0.11604314798409520 
-0.26042050311035700 
-0.10988706148513294 
-0.25062160510067416 
-0.24943921484681114 
-0.10511202965815983 
-0.11604314798409520 
-0.13955226520419414 
-0.13955226520419414 
-0.24943921484681114 
-0.12471966414675448 
-0.17063254250219380 
-0.22497737013846528 
-0.13955226520419414 
-0.13955226520419414 
-0.13955226520419414 
-0.13955226520419414 
-0.48024824944999650 
-0.13955226520419414 
0.33493479886018857 
-0.22476820687912025 
-0.13955226520419414 
-0.13955226520419414 
-0.12471966414675448 
-0.12471966414675448 
-0.28736182212908173 
-0.13955226520419414 
-0.13955226520419414 
-0.32862502622111160 
-0.12767786395213163 
-0.13955226520419414 
-0.13955226520419414 
-0.13955226520419414 
0 
-0.036027780357272020 
1.3854712314313151 
0.50444684130720550 
0.23948530081936700 
0.35901842939888670 
0.083969970153081570 
0.40582654142668630 
0.30633776121089950 
0.96954684730649670 
1.0024595091150998 
0.52264484897460950 
0.84272918848221730 
0.65110784780439380 
0.32886488783700260 
0.40582654142668630 
0.31329641308881500 
0.33276683113254796 
0.33364071082499530 
0.32332662954773045 
0.36564270716325980 
0 
0 
-0.34019540909497803 
0 
-0.072382478211712440 
-0.036115853224393160 
-0.069526470987887990 
0 
0 
0 
0 
-0.23840318179706738 
0 
-0.036072369315353870 
0 
-0.25371839179414085 
0 
-0.47688724915917297 
0 
-0.036547618437843950 
-0.32248071977054690 
0 
0 
-0.094966482872199140 
0 
-0.13835252760206570 
0 
0 
-0.39418497228845245 
-0.13915522505850910 
0 
0 
0 
0 
0 
0 
0 
0 
0 
-0.070451305072918200 
0 
0 
0 
0 
-0.34383290585039306 
0 
0 
0 
0 
0 
0 
-0.12446910272012209 
0 
-0.22790296258386009 
-0.080696767316598150 
0 
-0.040990787795595890 
0 
0 
0 
-0.066060487103728510 
0 
-0.16376234324684757 
0 
0 
0 
-0.15852129149297117 
-0.074599088929903080 
0 
-0.18642019516931382 
-0.056668655567695240 
-0.10872508824293659 
0 
0 
-0.10384927384271980 
-0.10109787390087421 
0 
-0.40454707440201170 
0 
0 
0 
0 
0 
0 
-0.050128250099116670 
0 
-0.13310772092607620 
0 
-0.053307644708582290 
0 
0.022143680185552140 
0 
-0.38623351788355376 
-0.31066459102613253 
0 
-0.056645265272472030 
0 
-0.032180050762448044 
-0.11950693528528208 
0 
0 
0 
0.62495213011639170 
-0.085695327516033440 
-0.047639125121390534 
0 
0 
0 
0 
-0.15274995815957668 
0 
0 
0 
0 
0.33635664560220950 
-0.24079120356089984 
0.047259749313428610 
0 
0 
0 
0.092149455344568200 
0 
-0.20940243877592032 
0 
0 
0 
-0.22015068355208856 
-0.042189157259237680 
-0.026775279333216580 
-0.061985397578352880 
0 
0 
0 
0 
0 
-0.25655486844865840 
0 
0 
0 
0 
0 
0 
0 
0 
-0.23318602094703600 
0 
-0.13655628962145394 
0 
0 
0 
0 
0 
0 
0 
0 
-0.32382629447724670 
0 
0 
-0.14217939287332520 
-0.15156052566922673 
0 
0 
0 
0 
-0.22497161575242627 
0 
0 
-0.050235449263650575 
0 
0 
0 
0 
-0.095180530516780400 
0 
0 
0.018215439046841572 
0 
-0.088358280712555600 
0 
0 
0 
0 
0 
0 
0 
0 
0 
0 
0 
-0.31985237227792760 
0 
-0.015636977282062973 
0 
0 
0 
0 
-0.21997829205291190 
-0.051352150652317110 
-0.15193137232980910 
0 
0 
0 
0 
-0.024169962892691067 
-0.11828106691262243 
-0.15073687625541643 
0 
-0.14452053131012169 
-0.18560760096518850 
0 
-0.097774939698970350 
0 
0 
0 
-0.30342466503277593 
0 
0 
-0.025475641925931740 
0 
-0.051357593288808210 
-0.28309077340513816 
0 
-0.051651213051353480 
0 
0 
-0.074278866737335200 
-0.19281673688056788 
0 
0.45673974082067450 
0 
0 
0 
0 
0 
0 
0 
0 
-0.14138376867769370 
0 
0 
-0.049948819221055540 
0 
0 
-0.059232587792556120 
0 
-0.076415805205335280 
0 
0 
-0.030452879710336330 
0 
0 
-0.077794498185409030 
-0.27217260325034240 
-0.18020997975621040 
0 
0 
0 
0 
-0.10507882333387886 
0.64612058575818910 
-0.35530909708646080 
-0.081652014940505780 
-0.12621584413018408 
-0.081652014940505780 
-0.059218275436657040 
-0.081652014940505780 
-0.081652014940505780 
-0.44303899635932720 
-0.23430420130697677 
-0.15205732983603282 
-0.12071835478509871 
-0.31887696622779040 
-0.14594689064148278 
-0.31848395507982363 
-0.081652014940505780 
-0.081652014940505780 
-0.078548827895097530 
-0.15518964701545085 
-0.081652014940505780 
-0.31770642653620740 
-0.080151584871843720 
-0.081652014940505780 
-0.081652014940505780 
0.34787130355599105 
-0.081652014940505780 
-0.059684917194668290 
-0.12693486466277748 
-0.35805562002425223 
-0.081652014940505780 
-0.081652014940505780 
-0.067896830857732390 
-0.067896830857732390 
-0.10828327946604395 
-0.081652014940505780 
-0.25717941678305417 
-0.081652014940505780 
-0.081652014940505780 
-0.081652014940505780 
-0.16210358311160380 
-0.081652014940505780 
-0.050539719674933814 
-0.081652014940505780 
-0.33106140661143440 
-0.081652014940505780 
-0.072973460161632570 
-0.081652014940505780 
-0.081652014940505780 
-0.22317398171080763 
-0.081652014940505780 
-0.081652014940505780 
-0.30947159183543427 
-0.081652014940505780 
-0.29108297905018393 
-0.081652014940505780 
-0.081652014940505780 
-0.081652014940505780 
-0.44840887081623470 
-0.081652014940505780 
-0.12911277904043686 
-0.081652014940505780 
-0.081652014940505780 
-0.45965078364353110 
-0.17520542169780800 
-0.13159585979052180 
-0.081652014940505780 
-0.081652014940505780 
-0.20369039692946941 
-0.17323117986175807 
-0.081652014940505780 
-0.19849133013065730 
-0.14594689064148278 
-0.025055885226228165 
-0.081652014940505780 
-0.10769697752352055 
-0.59037657529794270 
-0.081652014940505780 
-0.18798907114307903 
-0.081652014940505780 
-0.081652014940505780 
-0.081652014940505780 
-0.87370688513850490 
-0.25541404916585103 
-0.081652014940505780 
-0.081652014940505780 
-0.081652014940505780 
-0.081652014940505780 
-0.081652014940505780 
-0.15437842719014813 
-0.21670961355746660 
-0.27926466402068323 
-0.27036784573505210 
-0.14594689064148278 
-0.18221936259967086 
-0.44639080365236966 
-0.52630844186027350 
-0.081652014940505780 
-0.055616349394452064 
-0.20687476323706436 
-0.081652014940505780 
-0.081652014940505780 
-0.25777441947505280 
-0.081652014940505780 
-0.14911175183921160 
-0.081652014940505780 
-0.081652014940505780 
-0.16903035622666884 
-0.081652014940505780 
-0.081652014940505780 
-0.081652014940505780 
0 
-0.078722311634903940 
-0.12168287429013264 
-0.064360099352478230 
-0.045750168842244360 
-0.25689856752660956 
0 
-0.10290151420239224 
0 
-0.010651998013243472 
-0.054228998332899140 
0 
0 
-0.16101514424830718 
0 
0 
-0.21812953233038362 
0 
0 
-0.089375581360416510 
-0.091517243628461860 
0 
0 
0 
-0.57002883178695760 
0 
-0.20115155502584295 
0 
0 
0 
-0.058860194713643280 
-0.049582502414242080 
-0.43134527173016440 
-0.12601959110389574 
-0.19312042757308900 
0 
0 
-0.21451644179252882 
-0.71418275496508590 
0 
0 
0 
-0.11468313781176961 
0 
0 
0.070961167794035970 
-0.040728113943108900 
0.24012049459139190 
-0.21607740752424298 
0.077984199910615340 
0.29717347619181267 
0.30797005474234196 
0.64801988721376040 
0.12652303805415474 
0 
0.049813768159798640 
0.15781321371290610 
0.34869537984292010 
-0.60201212979739220 
0 
0.094556849981973220 
0.27288223545596010 
-0.38783143214188487 
0.063261537243280720 
0.063261537243280720 
0.056537652885435350 
0.14720438116312487 
0.60353462858931060 
0.10520884406100970 
0.10520884406100970 
0 
0.33994107638394067 
0.10387473816007932 
-0.12777576450901318 
0.88733347852896890 
0.056537652885435350 
0.091761081269637850 
0.052604432503606690 
0.056537652885435350 
-0.036987961749546540 
0.31069574017760850 
0.063261537243280720 
0.063261537243280720 
0.052604432503606690 
-0.28404653761753795 
0.026222808945711500 
0.047649160688777586 
-0.35214817111291070 
0.063261537243280720 
0.063261537243280720 
0.16129873244843954 
0.17394475759058245 
0.28195567649669750 
0.063261537243280720 
0.15781321371290610 
0.084736258880007910 
1.2041031362758101 
0.063261537243280720 
-0.46532194449468994 
0.14944123332522860 
0.70871554385563130 
0.83496619275938300 
0.056537652885435350 
0 
0.063261537243280720 
-0.089521156497597980 
-0.30224055977976944 
0.063261537243280720 
-0.076407211334331650 
0.50568494551316210 
0.063261537243280720 
0.063261537243280720 
0.027691861802206952 
0.063261537243280720 
-0.067532365095295440 
0.31015256004484004 
0.49686317814919560 
0.40482501376273394 
0.26333490149626490 
0.53884284747354890 
0.15925048234169664 
0.20168857473231197 
0.52461421781466390 
0.34874198112413340 
0.21142931513703983 
0.21142931513703983 
0.43946812023588720 
0.26370387881645280 
0.37791395891193460 
0.31780763358773456 
0.23386433802851972 
0.21142931513703983 
0.22092998947291734 
0.12080321700952760 
0.18895711757062620 
0.26333490149626490 
0.26333490149626490 
0.48517448228619690 
0.21142931513703983 
0.23746769669145307 
-0.47904665670802127 
0.34669260178068150 
0.18895711757062620 
0.16648491610198782 
0.54637812873326840 
0.21142931513703983 
0.21142931513703983 
0.31063921289260005 
0.47569957643678910 
0.21142931513703983 
0.22374760780682890 
0.16648491610198782 
0 
-0.67743687730176590 
0 
0 
0 
0 
0.64993874496891910 
0 
0 
0 
0 
0 
0 
0 
0 
0 
0 
0 
0 
0 
0 
-0.010086909613137606 
-0.061985397578352880 
0 
0 
0 
0 
0 
0 
0 
-0.10025773459299686 
0 
0 
0 
0 
-0.036115853224393160 
0 
0 
0 
0 
-0.38774691497543917 
0 
0 
0 
0 
-0.045108516727828000 
0 
-0.068994779800645530 
0 
0 
0 
-0.026775279333216580 
0 
0 
0 
0 
0 
0 
0 
0 
-0.081035584652574610 
-0.018410620308486640 
0 
0 
-0.056951237080523220 
-0.042590975301440830 
-0.066101165429138520 
0 
0 
-0.034898371540568220 
-0.24888003753805404 
-0.037362476119659210 
-0.030319808873119095 
-0.020406641688462124 
0 
-0.056240664147705030 
-0.082478041456853350 
0 
0 
0 
-0.22484693652367752 
0 
0 
0 
0 
-0.10025773459299686 
0 
-0.029671540169356290 
0.33850852721590785 
-0.038884037971274030 
-0.15538702868927654 
0 
0 
-0.29086380759733405 
-0.13881320878640820 
0 
0.091204840638083730 
-0.039563568623786405 
0 
-0.044351472778565720 
0 
-0.70417289928997280 
0.38583989130638470 
-0.12539540666213850 
-0.13477118780197820 
-0.13477118780197820 
-0.11358331831360562 
-0.13477118780197820 
-0.13477118780197820 
-0.23748625328511697 
-0.16405107403073960 
-0.22716653689643224 
-0.13477118780197820 
-0.29474827945166160 
-0.18809306806236690 
-0.40153454098458090 
-0.13477118780197820 
-0.13477118780197820 
-0.13477118780197820 
-0.12539540666213850 
-0.23176800241089700 
-0.13477118780197820 
-0.19937648532896515 
-0.12539540666213850 
-0.18809306806236690 
-0.13477118780197820 
-0.12075431556716130 
-0.10832703533321963 
-0.075399609396499870 
-0.10304609433883524 
-0.097579500653289910 
-0.29536881534123180 
-0.28997392046466890 
-0.17123024567742326 
-0.14756244039071220 
-0.051357593288808210 
-0.062697711715111060 
-0.075399609396499870 
-0.073349708825799140 
-0.24060777488595167 
-0.073349708825799140 
-0.075399609396499870 
-0.075399609396499870 
-0.075399609396499870 
-0.075399609396499870 
-0.075399609396499870 
-0.067385604310023260 
-0.067385604310023260 
-0.091555565168479670 
-0.13477118780197820 
-0.18809306806236690 
-0.075399609396499870 
0.014203606885222660 
-0.25313893775167223 
-0.075399609396499870 
-0.075399609396499870 
-0.13477118780197820 
-0.23748625328511697 
-0.075399609396499870 
-0.075399609396499870 
-0.075399609396499870 
-0.075399609396499870 
-0.13477118780197820 
-0.075399609396499870 
-0.075399609396499870 
-0.13477118780197820 
-0.075399609396499870 
-0.075399609396499870 
-0.075399609396499870 
-0.075399609396499870 
-0.14431290537079594 
-0.075399609396499870 
-0.075399609396499870 
-0.075399609396499870 
-0.075399609396499870 
-0.079545416455313850 
-0.099752137847874050 
-0.075399609396499870 
-0.062697711715111060 
-0.061307673945515570 
-0.18809306806236690 
-0.075399609396499870 
-0.075399609396499870 
-0.067385604310023260 
-0.30388377067593186 
-0.34876154330059590 
-0.18424002219772660 
-0.067385604310023260 
-0.34666875692127963 
-0.085193243279723970 
-0.21252440897133582 
-0.15227657484267584 
-0.20125000094554188 
-0.085193243279723970 
-0.092718683706630200 
-0.15227657484267584 
-0.15227657484267584 
-0.085193243279723970 
-0.15227657484267584 
-0.15227657484267584 
-0.085193243279723970 
-0.085193243279723970 
-0.085193243279723970 
-0.085193243279723970 
-0.085493978387431390 
-0.13798521195535768 
-0.34666875692127963 
-0.52052813512849950 
-0.15227657484267584 
-0.067083359407749650 
-0.085193243279723970 
-0.085193243279723970 
-0.57062958031409270 
-0.085193243279723970 
-0.085193243279723970 
-0.085193243279723970 
-0.085193243279723970 
-0.085193243279723970 
-0.26833324441121350 
-0.26833324441121350 
-0.059772807046524810 
-0.085193243279723970 
-0.085193243279723970 
-0.22098601998394962 
-0.0043900091591816420 
-0.15227657484267584 
-0.093914550188130690 
-0.085193243279723970 
-0.15227657484267584 
-0.085193243279723970 
-0.28246286624673106 
-0.085193243279723970 
-0.085193243279723970 
-0.085193243279723970 
-0.085193243279723970 
-0.085193243279723970 
-0.37071881733907740 
-0.085193243279723970 
-0.085193243279723970 
-0.085193243279723970 
-0.085193243279723970 
-0.40935997225339016 
-0.085193243279723970 
-0.085193243279723970 
-0.21851666446569465 
-0.085193243279723970 
-0.085193243279723970 
-0.076138301543468970 
-0.076138301543468970 
-0.085193243279723970 
-0.085193243279723970 
-0.79404027580150320 
-0.24481981883696935 
-0.15227657484267584 
-0.085193243279723970 
-0.085193243279723970 
-0.085193243279723970 
-0.067083359407749650 
-0.085193243279723970 
-0.085193243279723970 
0.076109701844573750 
-0.085193243279723970 
-0.085193243279723970 
0.33283534972118070 
-0.21252440897133582 
0.17071031519705923 
-0.14171246426356940 
-0.15227657484267584 
0.032772264287025140 
-0.085193243279723970 
-0.085193243279723970 
-0.15704288185233037 
0.056551198672574680 
-0.085193243279723970 
-0.22904904535382010 
-0.042324506357353820 
-0.15227657484267584 
-0.15227657484267584 
0.27385983465920316 
0.091716775221283980 
0.17226377742656673 
-0.017747663765342123 
-0.33828455598989476 
0 
-0.64015870403803830 
0 
0 
-0.052489088476540340 
-0.099036695548922460 
0 
-0.31045180157527424 
0 
-0.45301270055750226 
0 
0 
-0.026902837176778636 
0 
0 
-0.011448445380146263 
-0.12538870366321933 
0 
0.64180308374273590 
0 
0 
0 
0 
-0.19996452114691168 
0 
0 
0 
-0.034546474812916436 
-0.017747663765342123 
0 
-0.14172050644095888 
-0.028352432852286634 
-0.53379074325261840 
0 
-0.071090575781882520 
0 
0 
0 
0 
0.18749459196322055 
0 
-0.15608696412274570 
0 
0 
0 
0 
-0.56626486261090010 
0 
0 
0 
-0.015925546195690077 
0 
0 
0 
0 
-0.20642838490096024 
0 
0 
0 
0 
0 
-0.076613294887128870 
0 
0 
0 
0 
-0.20482115446167554 
0 
0 
-0.45047994254830300 
0 
0.060109910327848450 
-0.17777191916962620 
0 
0 
0 
0 
0 
-0.095761885077652640 
-0.10329047869031927 
0 
0 
0 
0 
0 
0 
-0.17133853098133944 
0 
0.14101872304619534 
0 
0 
0 
0 
0 
-0.16909492849725374 
0 
0 
0 
-0.026775279333216580 
-0.12576577835656222 
-0.038139133885197640 
-0.11113753473951603 
0 
-0.050870834014968300 
0 
-0.096087489011296930 
0 
-0.047427944230956975 
-0.011448445380146263 
0 
0 
-0.11716717357319356 
0 
-0.020895694413058880 
0 
0 
0 
0 
0 
-0.12880594195935008 
0 
-0.089108313439354530 
0 
-0.028193565050833100 
0 
0 
0 
-0.10116447720477158 
0 
-0.047427944230956975 
0 
-0.19428603056365137 
0 
0 
0 
0 
-0.089035445337019760 
0 
0 
0 
0.39568094014928810 
0 
0 
-0.54911255952342730 
-0.18690345792138310 
-0.10472041278972823 
0 
0 
0 
-0.15608696412274570 
-0.020457073983689653 
0 
0 
-0.78109874287452850 
-0.024169962892691067 
0.13816970172040866 
0 
0 
0 
0 
0.11950334546476224 
-0.50680640312376330 
-0.52492983080892610 
-0.41110141178896276 
-0.42343041714588997 
0.00082940539046581430 
-0.52741992239338920 
0 
0.69888199491147660 
0.71987714131820770 
1.3490040431087530 
-0.55810583208621930 
-0.87806881630655630 
0 
-0.32517344524851500 
-0.052868334468167870 
0 
0 
0 
0 
-0.39321196500659340 
0 
0 
0 
0 
0 
0 
0 
0 
-0.12674984105189070 
-0.040990787795595890 
-0.039891956388910216 
-0.24131082215798527 
0 
0 
-0.019614027992392057 
0 
-0.043573781118170576 
-0.15425893502940943 
0 
0 
-0.075841806960659040 
-0.057673187405510770 
0 
0 
0 
-0.072079719071017400 
0 
-0.13313214557249510 
0 
0 
0 
0 
0 
0 
-0.027034738715596748 
-0.026775279333216580 
0 
-0.10783215322734378 
0 
0 
0 
0 
0 
0 
0 
0 
-0.030319808873119095 
0 
0 
0 
-0.10232616046434681 
-0.083225980879002260 
-0.25171029569495520 
0 
0 
0.13046927074486944 
-0.099741602999729870 
0 
0 
0 
0.22734388727150986 
0 
-0.16340724470606070 
0 
0 
-0.016512991322473736 
0 
0 
0 
0 
-0.19226992748322694 
-0.31279341430859300 
0.20789322269184480 
0 
0 
0 
0 
0 
0 
0 
-0.019381519989624472 
0 
0 
0 
0 
0 
-0.13882731212544253 
0 
0 
0 
-0.34352661543943220 
0 
0 
0 
-0.070210890332906900 
0 
0 
0 
0 
-0.19669233354693347 
0 
-0.48875352888795310 
0 
0.0047110937061604260 
0 
0 
-0.16481498518253085 
0 
-0.59188475432611800 
0 
0 
-0.010651998013243472 
-0.24204138217562590 
-0.011448445380146263 
0 
0 
0 
0 
0 
-0.58847429012607430 
0 
-0.020895694413058880 
-0.020895694413058880 
-0.16808400452404737 
-0.14761542348655024 
0 
-0.089535674191880730 
0 
0 
-0.011448445380146263 
0 
-0.021223775089208644 
0 
-0.016512991322473736 
-0.17130704855779650 
-0.10109330330525522 
-0.097716249135921490 
-0.019256838283133515 
-0.15773839121351690 
-0.059891931701290140 
-0.18271034566327410 
-0.063247194679417960 
-0.17449883930623494 
-0.063247194679417960 
-0.16644491670594780 
-0.038093213925059110 
-0.22238078275187160 
-0.14428058984770162 
-0.11032590218441869 
-0.040941434414976030 
-0.077877211776384440 
-0.063247194679417960 
-0.083711492847465150 
-0.063247194679417960 
-0.15542305327604010 
-0.13102360747714790 
-0.11864857176665396 
-0.056246187896963950 
-0.087204362092826180 
-0.063247194679417960 
-0.068191799670254650 
-0.17489934382611083 
-0.040941434414976030 
-0.095964296475758880 
-0.049205146848663660 
0.17198206538527397 
-0.069565258502724550 
-0.10743564718060457 
-0.30818772035190445 
-0.063247194679417960 
-0.063247194679417960 
-0.15694696029114780 
-0.093866297028119970 
-0.13999130666536258 
-0.041666972627949440 
-0.17792442193271793 
-0.10842695191357726 
-0.29519879432690590 
-0.092610737958460210 
-0.017747663765342123 
-0.35867153982188943 
-0.066072329039383700 
-0.10921132319668304 
-0.17762083967345230 
-0.020895694413058880 
-0.030301591200553948 
0 
0.14011451963947122 
0 
-0.44879723588717280 
-0.11154525579646231 
-0.34951556065509960 
0.0063093126094288820 
-0.078302551290905690 
-0.057573099281832865 
0 
0 
0 
0 
-0.021303995932429230 
-0.023692767042135573 
0 
0 
0 
-0.035810796290334200 
-0.10977230998963085 
-0.025153981504142085 
-0.094525628640352010 
-0.15197537872509220 
0.059497190887012660 
0.40377526723588600 
-0.32225139356203170 
-0.094872716398363750 
-0.10018767064753994 
-0.042830658799149046 
-0.057968448718582340 
-0.11420350108425780 
0 
-0.091517243628461860 
-0.12674984105189070 
-0.020173819146406720 
-0.088276163897058360 
-0.025537766178753186 
-0.097859715484475460 
-0.11789022513152601 
0 
-0.030094017187522377 
-0.62798958150249430 
0 
0.29299171306873780 
0 
0.018792287077968380 
-0.37981956662207630 
-0.17748969364151310 
0 
-0.13802458065512166 
0.13792895097945840 
0 
-0.11247192519409267 
0.088746517162056640 
0 
0.54376009815826000 
0 
-0.096230234244234870 
0 
0.082094964896602020 
-0.024912572239984023 
0 
0 
-0.020895694413058880 
-0.13988331283841487 
0 
0 
0 
0 
-0.41544120923349820 
-0.37934695476984326 
0 
0.21582352703073970 
0 
0 
0 
0 
0 
0 
-0.015814178861631400 
0 
0 
0 
-0.10458902384553967 
0.26489748856427875 
0 
-0.036051025491447860 
0 
0 
-0.034763237199475945 
0.10367110066896751 
0.33279604052277830 
0.29281168885101440 
0.20734372182335986 
1.5173417809648848 
-0.036617849278311690 
0 
-0.061204399520997950 
0 
0 
0 
-0.14814875748634640 
0 
-0.13853524463944464 
0 
0 
-0.12422782194624772 
-0.0095564790883346480 
0 
0 
-0.064112123318816040 
-0.49828544307413225 
0 
0 
-0.11799011862844688 
-0.26717985289632795 
-0.13791682422061027 
0 
-0.33538625103970815 
-0.25396308584506266 
0 
0 
0 
0 
0.094268466505661800 
0 
0 
0 
0 
0 
0 
0 
0 
0 
0 
0 
0 
0 
0 
0 
0 
0 
0 
0 
0 
0 
0 
0 
0 
-0.091866156079831980 
-0.14172050644095888 
0 
-0.18773163036687981 
0 
0 
0 
0 
0 
0 
0 
0 
0 
0 
0 
0 
0 
0 
0 
0 
0 
-0.14826160613987804 
0 
0.078092555513984200 
-0.24744048082760892 
0 
0 
0 
0 
-0.050951282466672630 
-0.35935372083687367 
0.15150854757746654 
0 
0 
0 
0 
-0.012291618345570866 
-0.075377501544973640 
0 
0 
-0.051330538809499046 
-0.22138667616882257 
-0.66418665778146920 
-0.66418665778146920 
-0.66418665778146920 
-0.66418665778146920 
-0.66418665778146920 
-0.46600467711038934 
0 
0 
0 
0 
0 
0 
-0.12468031900248623 
0 
-0.17059932645374384 
-0.17722910456225724 
0 
0 
0 
0.080400721764280450 
0 
-0.091335077897758590 
0 
0 
0 
0 
0 
0 
0 
0 
0 
0 
0 
-0.091540053394056780 
0 
0.015611180000820034 
-0.026775279333216580 
-0.13412207454758154 
0 
0 
0 
0 
0 
-0.13600113080862938 
-0.032808566665540690 
0.094944720923865230 
0 
0 
-0.095407431851161160 
0 
-0.17116503036261718 
0 
0 
0 
0 
0.026789864812491383 
0 
0 
-0.040990787795595890 
0 
-0.22922439894130253 
0 
0 
0 
0 
0 
0 
0 
0.036240334848068570 
-0.037362476119659210 
0 
0 
0 
0 
0.070525849017615880 
0 
0 
0 
0 
0 
0 
0 
0 
0 
0 
0 
0 
0 
0 
0 
0 
-0.12274240427488660 
0 
-0.29060906231296410 
0 
0 
-0.099944161553930740 
0 
0 
0 
0 
0 
0 
0 
0 
-0.096406732061999690 
0 
-0.072872506323544390 
0 
0 
-0.21353149030756700 
-0.023590960520562622 
0 
-0.22363779699074900 
-0.22363779699074900 
0 
0 
0 
0 
-0.55287562034159870 
0 
0 
0 
-0.013167632388932822 
0.030687279781957746 
0 
0 
0 
0 
0 
-0.25674746051110210 
-0.19890594892440275 
-0.45136940298761347 
-0.085582532176264550 
-0.085582532176264550 
-0.17116503036261718 
-0.44785957977756363 
-0.10292065305915271 
-0.10292065305915271 
-0.10292065305915271 
-0.10292065305915271 
-0.10292065305915271 
-0.10292065305915271 
-0.10292065305915271 
-0.10292065305915271 
-0.10292065305915271 
-0.091981516900542830 
-0.10292065305915271 
-0.10292065305915271 
-0.074643395104689300 
-0.31008280549592937 
-0.12697151195634710 
-0.10292065305915271 
-0.10292065305915271 
-0.10292065305915271 
-0.10292065305915271 
-0.10292065305915271 
-0.10292065305915271 
-0.10292065305915271 
-0.32416923170493905 
-0.10292065305915271 
-0.10292065305915271 
0.0016374699198893308 
-0.10292065305915271 
-0.18396299159985470 
-0.18396299159985470 
-0.18396299159985470 
-0.10292065305915271 
-0.10292065305915271 
-0.10292065305915271 
-0.10292065305915271 
-0.10292065305915271 
-0.10292065305915271 
-0.10292065305915271 
-0.091981516900542830 
-0.10292065305915271 
-0.10292065305915271 
-0.10292065305915271 
-0.14928676766052800 
-0.10292065305915271 
-0.10292065305915271 
-0.10292065305915271 
-0.18838823521565923 
-0.10292065305915271 
-0.10292065305915271 
-0.10292065305915271 
-0.10292065305915271 
-0.10292065305915271 
-0.085582532176264550 
-0.81713120780209760 
-0.10292065305915271 
-0.10292065305915271 
-0.10292065305915271 
-0.76887607223461440 
-0.76887607223461440 
-0.13760564987048354 
-0.51617221767072940 
-0.85327057524264160 
-0.47737623405927787 
-0.39351545301682517 
-0.47737623405927787 
-0.39695717442257505 
-0.37752323707295540 
-0.47737623405927787 
0 
0 
-0.033033178579371810 
-0.14740070346248527 
-0.091871330763175340 
-0.032983229156650765 
-0.13244604503426505 
-0.15688345422007720 
0 
0 
0.37940137503163174 
0 
-0.11834413697507244 
0 
0 
-0.032919047825037160 
0 
0 
-0.016512991322473736 
0 
-0.090677098852762620 
0 
0 
0 
0 
0 
-0.65352453263447590 
0 
0 
0 
0 
0 
0 
-0.073971606892968360 
0 
0 
-0.32802397650807025 
0 
0 
0 
0 
-0.030452879710336330 
0 
0 
-0.13796621765170233 
0 
0.0092972994654296340 
0 
0.33276524847160110 
0 
0 
0 
0 
-0.057773589818761316 
0 
0 
-0.30798824261151520 
-0.50852956396434300 
0 
-0.025153981504142085 
0 
0 
-0.11799363867703280 
-0.013526290793912892 
0 
0 
0 
-0.057666023969142910 
-0.021295488012687630 
0 
0 
-0.10306245604285400 
-0.093354101934055770 
0 
-0.37485758644159883 
0 
0 
0 
-0.043774915917168860 
0 
-0.12621829722119968 
-0.12621829722119968 
-0.12621829722119968 
-0.12621829722119968 
-0.17588880120288627 
-0.19047617023188818 
-0.11280292161137707 
-0.11280292161137707 
-0.11280292161137707 
0.52582974547112830 
-0.12621829722119968 
-0.12621829722119968 
-0.54923968725269390 
-0.18898855500278958 
-0.12621829722119968 
-0.22560580987009470 
-0.27421012220120830 
-0.22560580987009470 
-0.11280292161137707 
-0.22560580987009470 
-0.35267670990620650 
0 
0 
0 
0 
0 
-0.034047597474748954 
-0.019614027992392057 
0 
0 
0 
0 
0 
0 
0 
0 
0 
-0.14172448016751069 
0 
0.33728800066158127 
0 
-0.047297461521579960 
0 
-0.19869603051506518 
0 
0 
0 
0 
0 
0 
0 
0 
0 
-0.026831192851822484 
0 
0 
0 
0 
0 
0 
0 
0 
0 
0 
0 
0 
-0.022488502880327173 
0 
0 
0 
-0.050532388710082180 
0 
0 
-0.019614027992392057 
0 
0 
0 
0 
0 
0 
0 
0 
0 
0 
-0.057019332600905080 
0 
0 
0 
0 
0 
0 
0 
0 
0 
0 
0 
0 
0 
0 
0 
0 
0 
0 
0 
0 
0 
0 
0 
0 
0 
0 
-0.11255936191400702 
0 
0 
-0.081359581970396680 
-0.24885467109608986 
-0.79169394239967660 
0 
0 
0 
0.23529404599916410 
0 
-0.059290679047165694 
0 
-0.021295488012687630 
0 
0 
0 
0 
0 
0 
0 
0 
0 
0 
0 
0 
-0.097033558602801800 
-0.051635153633123160 
0 
0 
0.073110556954478060 
0 
0.69294748107121040 
-0.026902837176778636 
0 
0 
0 
0 
0 
0 
-0.045750168842244360 
0 
0 
-0.042567413542978300 
-0.16531268695666950 
-0.12531389342865576 
0.87937662194524660 
0.87599668730358580 
-0.081404977252187070 
0 
0.10387473816007932 
-0.087549826896298550 
0 
-0.67342760310160630 
-0.080930664742880960 
-0.047776637418384060 
0 
-0.38806056280234270 
0 
0 
0.15396330804550320 
-0.070263748695831240 
0 
-0.020895694413058880 
0 
-0.040990787795595890 
-0.19057213065722830 
0 
-0.10507882333387886 
-0.10355317966266775 
0 
-0.059232587792556120 
-0.026775279333216580 
0 
0 
0 
-0.026775279333216580 
0 
-0.087098621970598350 
0 
0 
0 
0 
-0.10563112349330910 
-0.19285104725572247 
0 
0 
-0.057968448718582340 
0 
0 
0 
-0.026775279333216580 
0 
0 
-0.29852070232878397 
0 
-0.23835708243579407 
-0.066230300881192860 
0.23524955135919250 
0 
-0.026831192851822484 
0 
0 
-0.049920414360637290 
-0.079600295967607510 
0 
0 
0 
0 
-0.41291146913524360 
0 
0 
-0.11402381875496910 
-0.21116050943094080 
0 
-0.16876035225566663 
0 
0.23875956303069800 
-0.12191573280759739 
0 
0 
0 
0 
0 
0 
0.15981186568573896 
0.055736746677689860 
0.089409718813210860 
-0.19403928955773550 
-0.10682303394994552 
-0.14182388726983364 
-0.11793208868845353 
-0.12674984105189070 
-0.11793208868845353 
-0.53411410157147140 
-0.35379597949356380 
-0.14182388726983364 
-0.11793208868845353 
-0.20571603364631070 
-0.14182388726983364 
-0.53411410157147140 
-0.14182388726983364 
-0.25349959326166965 
-0.12674984105189070 
-0.64481342838951990 
-0.25349959326166965 
-0.35664137607086277 
-0.35379597949356380 
-0.12674984105189070 
-0.29012657552690440 
-0.14182388726983364 
-0.14182388726983364 
-0.35379597949356380 
-0.44670256508980680 
-0.14449749759420982 
-0.14182388726983364 
-0.14182388726983364 
-0.14182388726983364 
-0.089676250129515310 
-0.11167579357803710 
-0.096601744997895640 
-0.14182388726983364 
-0.14182388726983364 
-0.12674984105189070 
-0.14182388726983364 
-0.14182388726983364 
-0.13617643466912635 
-0.42289819695867560 
-0.35603571126130970 
-0.11462369656546295 
-0.15283157443291260 
-0.048522545956634515 
-0.048522545956634515 
-0.048522545956634515 
-0.036547618437843950 
-0.048522545956634515 
-0.040348386306143166 
-0.048522545956634515 
-0.048522545956634515 
-0.048522545956634515 
-0.048522545956634515 
-0.048522545956634515 
-0.037403632851479070 
-0.048522545956634515 
-0.12599830194611267 
-0.040348386306143166 
-0.048522545956634515 
-0.048522545956634515 
-0.086730444326054880 
-0.086730444326054880 
-0.080696767316598150 
-0.12969210692131203 
-0.16973981076736622 
-0.12988464997633628 
-0.30067494599100170 
-0.10021358277666303 
-0.048522545956634515 
-0.086730444326054880 
-0.10964283957039854 
-0.043365225450341220 
-0.086730444326054880 
-0.048522545956634515 
-0.22024995589707932 
-0.048522545956634515 
-0.030033744933582970 
-0.19256045024064164 
-0.048522545956634515 
-0.048522545956634515 
-0.048522545956634515 
-0.048522545956634515 
-0.048522545956634515 
-0.048522545956634515 
-0.048522545956634515 
-0.048522545956634515 
-0.086730444326054880 
-0.12104513773491227 
-0.048522545956634515 
-0.048522545956634515 
-0.11349381551994220 
-0.086730444326054880 
-0.048522545956634515 
-0.048522545956634515 
-0.048522545956634515 
-0.086730444326054880 
-0.048522545956634515 
-0.092821527884890370 
-0.048522545956634515 
-0.054813670433613314 
-0.048522545956634515 
-0.048522545956634515 
-0.048522545956634515 
-0.086730444326054880 
-0.25739358589486210 
-0.048522545956634515 
-0.048522545956634515 
-0.048522545956634515 
-0.048522545956634515 
-0.048522545956634515 
-0.048522545956634515 
-0.038207904851059200 
-0.048522545956634515 
-0.12104513773491227 
-0.11462369656546295 
-0.048522545956634515 
-0.086730444326054880 
-0.048522545956634515 
-0.073095232940021130 
-0.048522545956634515 
-0.048522545956634515 
-0.048522545956634515 
-0.048522545956634515 
-0.072317521765189770 
-0.048522545956634515 
-0.048522545956634515 
-0.048522545956634515 
-0.043365225450341220 
-0.048522545956634515 
-0.048522545956634515 
-0.065039096789077310 
-0.048522545956634515 
-0.048522545956634515 
-0.048522545956634515 
-0.048522545956634515 
-0.048522545956634515 
-0.048522545956634515 
-0.048522545956634515 
-0.043365225450341220 
-0.048522545956634515 
-0.048522545956634515 
-0.048522545956634515 
-0.048522545956634515 
-0.42392863731945790 
-0.048522545956634515 
-0.096158326350866840 
-0.048522545956634515 
-0.038207904851059200 
-0.048522545956634515 
-0.048522545956634515 
-0.066462593285351780 
-0.048522545956634515 
-0.048522545956634515 
-0.048522545956634515 
-0.048522545956634515 
-0.048522545956634515 
-0.048522545956634515 
-0.043365225450341220 
-0.073095232940021130 
-0.048522545956634515 
-0.048522545956634515 
-0.048522545956634515 
-0.048522545956634515 
-0.048522545956634515 
-0.048522545956634515 
-0.040348386306143166 
-0.048522545956634515 
-0.048522545956634515 
-0.048522545956634515 
-0.35327116042837210 
-0.048522545956634515 
-0.048522545956634515 
-0.043365225450341220 
-0.048522545956634515 
-0.048522545956634515 
-0.048522545956634515 
-0.048522545956634515 
-0.048522545956634515 
-0.029438191882674294 
-0.048522545956634515 
-0.048522545956634515 
-0.048522545956634515 
-0.048522545956634515 
-0.048522545956634515 
-0.048522545956634515 
-0.048522545956634515 
-0.048522545956634515 
-0.048522545956634515 
-0.048522545956634515 
-0.048522545956634515 
-0.048522545956634515 
-0.035191065657593080 
-0.048522545956634515 
-0.048522545956634515 
-0.048522545956634515 
-0.038207904851059200 
-0.048522545956634515 
-0.048522545956634515 
-0.048522545956634515 
-0.048522545956634515 
-0.048522545956634515 
-0.048522545956634515 
-0.048522545956634515 
-0.048522545956634515 
-0.19433565084819470 
-0.048522545956634515 
-0.048522545956634515 
-0.043365225450341220 
-0.043365225450341220 
-0.048522545956634515 
-0.048522545956634515 
-0.048522545956634515 
-0.048522545956634515 
-0.048522545956634515 
0.079024938700796470 
0 
0 
0 
0 
0 
-0.080176844555917380 
0 
0 
0 
0 
0 
0 
0 
0 
0 
0 
-0.23479606652807544 
-0.070641608260157700 
0 
0 
0 
0 
0 
-0.26520093018331803 
0 
0 
0 
0 
0 
-0.060895991916621610 
-0.056651710176734940 
0 
0 
0 
-0.0061956662594886330 
0 
0 
0 
0 
0 
-0.051419297279767590 
0 
0 
0 
0 
0 
0 
0 
0 
0 
0 
0 
0.037847212945111430 
0 
0 
0 
-0.020370113787874348 
0 
0 
0 
0 
0 
0 
0 
0 
0 
0 
0 
0 
0 
0 
0 
0 
-0.18715781930717190 
-0.13705121014580612 
0 
0 
0.014794183248512522 
-0.032256545907518760 
0 
0 
0 
0 
0 
0 
0 
-0.080633321926253600 
0 
0 
0 
0 
0 
0 
0 
0 
-0.068542588834861420 
0.13324015005743350 
0 
0 
0 
0 
0 
0 
0 
0 
0 
0 
0 
0 
0 
0 
0 
0 
0 
0 
0 
0 
0 
-0.096406730069548810 
0 
0 
0 
0 
0 
0 
-0.059591877081124095 
0 
0 
0 
0 
0 
0 
0 
0 
0 
0 
0 
0 
0 
0 
0 
0 
0 
0 
0 
0 
0 
-0.049582502414242080 
-0.075442678565108490 
0 
0 
0 
0 
0 
0 
0 
0 
0 
-0.72969192913665850 
0 
0 
0 
0 
0 
0 
0 
-0.13712950989352352 
-0.047285608417864465 
0 
0 
-0.13305677312404865 
-0.24399463704515070 
0 
0.20646513690513640 
0.25548153350332303 
0.20646513690513640 
0.70029744827073670 
-0.76385828057717220 
0 
0 
0.38844263218697700 
0.079697757031653050 
0.14800710986847643 
0.24043010500246190 
0.036406070066180910 
0.20105852799947924 
0.038928062686443790 
0.10087245394032872 
0.31296721810814330 
0.069581020399437980 
0.12656035769919413 
0.011270159175058770 
0.23550389396836774 
0.29067084637284620 
0.17242557170026784 
0.074153330518015760 
0.096489142428363220 
0.038928062686443790 
0.11989341386063560 
-0.15411939292033744 
-0.22693533098297233 
0.038928062686443790 
0.15309959950222670 
0.074153330518015760 
0.11989341386063560 
0.37507942517672940 
0.57106799723861000 
-0.069464963213646810 
0.26867805166416830 
0.18983821295914505 
0.062118795601052260 
0.37427092290501200 
0.038928062686443790 
0.032370199765895294 
0.33137275338627076 
0.038928062686443790 
0.032370199765895294 
0.023342066746458882 
0.13243414978338458 
0.11903420384401164 
0.038928062686443790 
0.038928062686443790 
0.038928062686443790 
0.038928062686443790 
0.028232648871452604 
0.038928062686443790 
0.038928062686443790 
0.038928062686443790 
0.20527984023899085 
0.089243939071735930 
0.038928062686443790 
0.16742264219578873 
0.079697757031653050 
-0.44316112851993930 
0.28536469254320657 
0.020566051560983210 
0.038928062686443790 
0.038928062686443790 
0.038928062686443790 
0.44176718766410120 
0.74413314094330950 
0.18746097556485900 
0.17852361885539425 
0.038928062686443790 
0.0051773193433373390 
0.066763402952223520 
0.038928062686443790 
0.038928062686443790 
0.038928062686443790 
0.038928062686443790 
0.21430204689878060 
0.10501538564411154 
0.082170764568698370 
0.038928062686443790 
0.038928062686443790 
0.43481572215335373 
0.71342312281578040 
0.23022561084411655 
0.038928062686443790 
-0.12177085660777530 
0.038928062686443790 
-0.25189976554591640 
0.038928062686443790 
0.038928062686443790 
0.066763402952223520 
0.11555421947587236 
0.067168179076208910 
0.038928062686443790 
0.038928062686443790 
0.023855313399639350 
0.16038142731899468 
-0.036886896663653030 
0.11764677958452159 
0.094488990985978220 
0.036406070066180910 
0.036406070066180910 
0.15781084797143830 
0.069581020399437980 
0.038928062686443790 
0.032370199765895294 
0.22686109207085708 
0.038928062686443790 
0.069581020399437980 
0.077513486934596280 
0.028232648871452604 
0.034790511864022815 
0.0072162186182996360 
0.038928062686443790 
0.038928062686443790 
0.20358585363840254 
0.15309959950222670 
-0.019903600676600430 
-0.017558444766579893 
0.038928062686443790 
0.070219497246863920 
0.13755989580473310 
0.038928062686443790 
0.038928062686443790 
0.038928062686443790 
-0.19948456046042512 
0.15890800585169465 
0.038928062686443790 
0.0040358714197105535 
0.038928062686443790 
0.58242798144287700 
0.65025369174067940 
0 
0 
-0.13741325902937318 
0 
0 
0 
-0.39312460706220300 
0 
-0.10385287708652417 
0 
0 
0 
0 
0 
-0.21885859711026345 
0 
0 
0 
-0.14581542981455545 
-0.081404977252187070 
0 
-0.29177900315308525 
0 
0 
-0.10310771290449953 
0 
0 
0 
0 
0 
-0.020895694413058880 
-0.024169962892691067 
0 
-0.062943288061455870 
0 
0 
-0.025665270094882044 
0 
0 
-0.069526470987887990 
0 
0 
0 
0 
0 
-0.65905457982752380 
0 
0 
-0.034763237199475945 
0 
0 
0 
-0.017747663765342123 
0 
-0.059891931701290140 
0 
0 
0 
0 
0 
0 
0 
0 
0 
0 
0 
0 
0 
-0.035564570113162050 
0 
0 
0 
0 
0 
0 
0 
0 
-0.017100388462649684 
0 
0 
-0.081229066070507340 
0 
0 
0 
0 
0 
0 
0 
0 
0 
0.27254423269687855 
0 
-0.10845798392345404 
0 
0 
0 
0 
0 
0 
-0.14009865051047315 
-0.19933673730753104 
-0.10821622705165188 
-0.061907452588685140 
-0.079263046521321750 
-0.39287764927019914 
0 
0 
-0.074384835650361330 
0 
0 
-0.079099792517255670 
0 
0 
0 
0 
0 
0 
0 
0 
0 
-0.16417103311475895 
-0.096104750853855770 
0 
-0.0087253738446737670 
0.049511544322674586 
0 
-0.28531957164736930 
-0.23346501533637140 
0 
0 
0 
-0.060880618198557675 
-0.068121001773628870 
-0.16993577461473688 
-0.32828951701287530 
-0.17229353481504864 
-0.47380676901652224 
-0.36037003999284060 
-0.17790584619022237 
-0.27266724516400553 
-0.35901669836688244 
-0.12176122981910023 
-0.053640234530466110 
-0.29642916602025843 
-0.29642916602025843 
-0.33212713246011283 
-0.26203215501954940 
-0.25654667908331130 
-0.44949875237704817 
-0.12176122981910023 
-0.068121001773628870 
-0.20092760365522663 
-0.10728046456236760 
-0.11329052524690585 
-0.17907715251036077 
-0.12176122981910023 
-0.21456089308812523 
-0.060880618198557675 
-0.10900547315202617 
-0.12286600977740932 
-0.068121001773628870 
-0.10833780575824352 
-0.21456089308812523 
-0.16993577461473688 
-0.17488561165903957 
-0.16512114115625073 
-0.063807185441827980 
-0.38092859927539520 
-0.17349539653406920 
-0.21456089308812523 
-0.12176122981910023 
-0.16993577461473688 
-0.12176122981910023 
-0.12176122981910023 
-0.11329052524690585 
-0.071666010020003780 
-0.12176122981910023 
-0.060880618198557675 
-0.34566088723722993 
-0.068121001773628870 
-0.21486647012436308 
-0.068121001773628870 
-0.068121001773628870 
-0.067297262267427130 
-0.068121001773628870 
-0.068121001773628870 
-0.068121001773628870 
-0.068121001773628870 
-0.068121001773628870 
-0.060880618198557675 
-0.068121001773628870 
-0.068121001773628870 
-0.068121001773628870 
0 
0 
0 
-0.028914355897724820 
-0.051352150652317110 
-0.025760275221993130 
-0.047658088278548366 
-0.050301415243589320 
0.059497190887012660 
-0.21399250411876700 
0 
0 
0 
0 
0 
0 
0 
0 
0 
0 
0 
0 
0 
0 
0 
0 
0 
0 
0 
0 
0 
0 
0 
0 
0 
0 
0 
0 
0 
0 
0 
0 
0 
0 
0 
0 
0 
0 
0 
0 
0 
0 
0 
0 
0 
0 
0 
0 
0 
0 
0 
0 
0 
0 
0 
0 
0 
0 
-0.077129481619003330 
0 
0 
0 
0 
0 
0 
0 
0 
0 
0 
0 
0 
0 
0 
0 
0 
0 
0 
0 
0 
0 
0 
0 
0 
0 
0 
0.095177534808438450 
0.11277536206402168 
0 
0 
0 
0 
0 
0 
0 
0 
-0.11556397049807800 
0 
0 
0 
0 
0 
-0.30782153016135620 
-0.10459009785472402 
0 
-0.051330538809499046 
0 
0 
0 
0 
0 
0 
-0.11664749850748474 
0 
0 
0 
0 
0 
0 
0 
0 
-0.17611283174134684 
-0.026831192851822484 
0 
0 
0 
-0.023209505964575360 
0 
0 
0 
0 
0 
-0.45539244979578860 
0 
0 
0 
0 
-0.39759410877557040 
0 
0 
0 
0 
-0.37139058825585800 
-0.25719480808292683 
0 
0 
0 
0 
0 
0 
0 
0 
0 
0 
-0.054228998332899140 
0 
0 
0 
0 
0 
0 
0 
-0.080706546023765770 
0 
0 
-0.21381310620792082 
0 
0 
0 
0.062086527872443814 
0 
0.40622694286824934 
0 
-0.011448445380146263 
-0.31391011358715320 
0 
0 
0.029748596701520875 
0 
0 
-0.077129481619003330 
0 
0 
0 
0 
0 
-0.061809811216833860 
0 
0 
0.10978505155286430 
-0.025665270094882044 
0 
0 
0 
-0.035258651643766560 
0 
0 
-0.21997829205291190 
-0.13174678085853080 
0 
0 
0 
0 
0 
0 
-0.024912572239984023 
0 
0 
0 
0 
-0.080987344718965290 
-0.11089896537600684 
0 
0 
0 
-0.12239712620829060 
0 
0.063663212927724840 
0 
-0.028914355897724820 
0 
0 
0 
0 
0 
0 
0 
0 
0 
0 
0 
-0.13736437489511497 
-0.081313077611917380 
0 
0 
0 
0 
0 
0.041783132078056030 
0 
-0.026831192851822484 
-0.064357810028653110 
-0.085900601093895800 
-0.084586109843659970 
0 
0 
0 
0 
0 
0 
-0.014402304836265464 
0 
-0.096817560304883530 
0 
0 
0 
0 
0 
0 
0 
0 
0 
0 
0 
0 
0 
0 
0 
0 
0 
-0.088494466347905810 
-0.041752581550084450 
0 
0 
-0.089699892949194520 
-0.33366024885686570 
0 
0 
-0.37567816196825260 
0 
0 
-0.028334328712461148 
0 
0 
0 
0 
-0.081142070031383070 
-0.14063401812928164 
0 
0 
-0.24033736059767238 
0 
0 
0 
-0.75964378660080460 
0 
0 
0 
0 
0.25769867452879020 
0.050247956149924826 
0.19601182278050830 
0.050247956149924826 
0.050247956149924826 
0.050247956149924826 
0.050247956149924826 
0.050247956149924826 
0.050247956149924826 
0.050247956149924826 
0.12534937358834033 
0.050247956149924826 
0.053750462474620190 
0.044907246813786680 
0.050247956149924826 
0.050247956149924826 
0.050247956149924826 
0.044907246813786680 
0.089814486599353950 
-0.020183700955079792 
0.050247956149924826 
0.15061707288137588 
0.035254689263731850 
0.044907246813786680 
0.050247956149924826 
0.076880137394014140 
0.050247956149924826 
0.050247956149924826 
0.036442422589849450 
0.050247956149924826 
0.42391580546051516 
0.083566258495105900 
0.050247956149924826 
0.050247956149924826 
0.039566537378246040 
-0.033620411150059200 
0.076880137394014140 
0.014454368086688004 
0.044907246813786680 
0.041783132078056030 
0.0061226144654700480 
0.050247956149924826 
0.050247956149924826 
0.050247956149924826 
0.15061707288137588 
0.086165275880932980 
0.050247956149924826 
0.050247956149924826 
0.089814486599353950 
0.050247956149924826 
0.050247956149924826 
0.050247956149924826 
0.050247956149924826 
0.013448804157569856 
0.050247956149924826 
0.050247956149924826 
0.050247956149924826 
0.050247956149924826 
0.050247956149924826 
0.053059362232890546 
0.050247956149924826 
0.050247956149924826 
0.050247956149924826 
0.10128031934920083 
0.044907246813786680 
0.15138880970252760 
0.044907246813786680 
0.039566537378246040 
-0.025665270094882044 
0 
0 
0 
0.17058242029473988 
-0.071408333857605240 
0 
0 
0 
0 
0 
0 
-0.14128319844434553 
0 
0 
0 
0 
0 
0 
0.072841234372646420 
0 
0 
-0.024912572239984023 
0 
-0.045188180683227365 
0 
0 
0 
-0.12343350460118573 
0 
0 
0 
0 
0 
-0.15566575367058430 
0 
0 
-0.027034738715596748 
-0.045398757533482720 
0 
-0.18846287238108703 
0 
0 
0 
0 
0 
0 
0 
0 
-0.042775997906655060 
-0.22081958445901295 
0 
0 
0 
0 
0 
0 
0 
0 
0 
-0.19186073361248576 
-0.0096485929972244200 
0.41984774966594357 
0 
-0.27157469721534944 
0 
0 
-0.023590960520562622 
0 
-0.080176844555917380 
0 
0 
0 
0 
-0.053662384126595040 
-0.11594300451769854 
0 
0 
0 
0 
0.52951393765712640 
-0.22967868556726515 
0 
0.056340865757826720 
0.070961167794035970 
0.18838898580608915 
0 
0 
0.032406440619910710 
0.25730710209319030 
-0.038584439275271255 
0 
0.38645687751761120 
0 
0 
0.085723392377115330 
0 
0 
0.27952211580363470 
0.22891923871298847 
0.27952211580363470 
-0.47974734317644724 
-0.26840142232779557 
-0.26840142232779557 
-0.21134622503765368 
-0.25440275912425980 
-0.26840142232779557 
-0.26840142232779557 
-0.26840142232779557 
-0.23110811590058822 
-0.26840142232779557 
-0.28128633681320110 
-0.26840142232779557 
-0.27534288097774330 
-0.31646912675609040 
-0.26664905135757290 
0 
0 
0 
0.55841453715700200 
0.51006599921316710 
-0.054069476080498460 
-0.030249914389480645 
0.26792696170750730 
-0.26402328020163530 
-0.11392252199506224 
-0.095278242851937940 
-0.075461940160564460 
-0.027034738715596748 
-0.067976172199715730 
-0.067976172199715730 
-0.067976172199715730 
-0.030249914389480645 
-0.067976172199715730 
-0.020058048574151343 
-0.13913050820578454 
-0.072789564810969220 
-0.085318424239134410 
-0.072789564810969220 
-0.58168847857209870 
0.062215732625133340 
-0.39812936665264840 
-0.030249914389480645 
-0.13502581930570395 
-0.16943506107516967 
-0.13532210434544756 
0.13834292138754253 
-0.072789564810969220 
-0.072789564810969220 
-0.10438273747326930 
-0.016523643292274338 
-0.072789564810969220 
-0.11468965213819761 
-0.072789564810969220 
0.079412172963504100 
-0.038483183948803810 
0.013137731536643283 
-0.14864095111223594 
-0.18208316972265270 
-0.030249914389480645 
-0.030249914389480645 
-0.053347546138009315 
-0.027034738715596748 
-0.030249914389480645 
-0.030249914389480645 
-0.030249914389480645 
-0.12534164847549142 
-0.18240052964650247 
0.12221099676127611 
-0.59299266713243350 
-0.054069476080498460 
-0.19176665097234630 
-0.066820952609255510 
-0.030249914389480645 
-0.030249914389480645 
-0.047642484058148620 
-0.044782402234294603 
-0.044782402234294603 
0.054530648008477150 
-0.030249914389480645 
-0.030249914389480645 
-0.030249914389480645 
0.23224631983937385 
-0.47163466072896310 
-0.030249914389480645 
-0.027034738715596748 
-0.030249914389480645 
-0.047930432807593300 
-0.054069476080498460 
-0.14585855191051522 
-0.076136653930137880 
-0.030249914389480645 
-0.035805979399029325 
-0.0064061301046557320 
-0.038483183948803810 
-0.030249914389480645 
-0.073363011082954000 
-0.030249914389480645 
-0.041666972627949440 
-0.030249914389480645 
-0.21455720815300303 
0.10343141987970468 
-0.030249914389480645 
-0.038483183948803810 
-0.12326496854276003 
-0.030249914389480645 
-0.054069476080498460 
-0.19568027978859430 
-0.25098458078076397 
-0.030249914389480645 
-0.054069476080498460 
-0.030249914389480645 
-0.054069476080498460 
-0.030249914389480645 
-0.030249914389480645 
-0.054069476080498460 
-0.046614486660030830 
-0.030249914389480645 
-0.030249914389480645 
0.40956577837471910 
-0.11468965213819761 
-0.17257215783132532 
-0.030249914389480645 
-0.030249914389480645 
-0.069860537016868080 
-0.030249914389480645 
-0.13403798216173357 
-0.030249914389480645 
-0.030249914389480645 
-0.044782402234294603 
-0.079382978369825470 
-0.030249914389480645 
-0.067570377232389570 
-0.030249914389480645 
-0.038483183948803810 
-0.030249914389480645 
-0.063999543874205300 
-0.030249914389480645 
-0.072784906248174300 
-0.030249914389480645 
-0.030249914389480645 
-0.030249914389480645 
-0.072789564810969220 
-0.041666972627949440 
-0.030249914389480645 
-0.030249914389480645 
-0.047930432807593300 
-0.030249914389480645 
-0.030249914389480645 
-0.030249914389480645 
-0.054069476080498460 
-0.030249914389480645 
-0.032403131553303540 
-0.030249914389480645 
-0.030249914389480645 
-0.030249914389480645 
-0.12295973490581287 
-0.044782402234294603 
0.37352480356307920 
-0.030249914389480645 
-0.030249914389480645 
-0.22535585405542358 
-0.030249914389480645 
-0.30265539927199580 
-0.030249914389480645 
-0.030249914389480645 
0.013759278600304210 
-0.13895155714308388 
-0.084580690242350320 
-0.033905285688603480 
-0.19732322304160987 
-0.021225833986754226 
-0.059083834770626870 
-0.051197285216503760 
-0.15811036818642807 
-0.051197285216503760 
-0.13853717931386930 
-0.086296739417486130 
-0.11723890942663534 
-0.11047843263153538 
-0.17998072666250536 
-0.030301591200553948 
-0.033905285688603480 
-0.033905285688603480 
-0.033905285688603480 
-0.080058821027798220 
-0.033905285688603480 
-0.033905285688603480 
-0.033905285688603480 
-0.16608415378591343 
-0.025537766178753186 
-0.051197285216503760 
-0.064148574923555940 
-0.11294098666990476 
-0.063519136188303570 
-0.18428051551159724 
-0.051197285216503760 
-0.11971276543954164 
-0.051197285216503760 
-0.080056160662544740 
-0.080056160662544740 
-0.033905285688603480 
-0.033905285688603480 
-0.060042646113803284 
-0.078875630629862530 
-0.033905285688603480 
-0.033905285688603480 
-0.033905285688603480 
-0.060603180877154710 
-0.12768881264688860 
-0.10679157633996698 
-0.21626610798824230 
-0.033905285688603480 
-0.033905285688603480 
-0.033905285688603480 
-0.033905285688603480 
-0.033905285688603480 
-0.033905285688603480 
-0.033905285688603480 
-0.097462373285842880 
-0.033905285688603480 
-0.033905285688603480 
0.042947848314283410 
-0.033905285688603480 
-0.12885373410375722 
-0.033905285688603480 
-0.033905285688603480 
-0.028193565050833100 
-0.033905285688603480 
-0.033905285688603480 
-0.033905285688603480 
-0.055096401739768444 
-0.033905285688603480 
-0.033905285688603480 
-0.033905285688603480 
-0.033905285688603480 
-0.033905285688603480 
-0.033905285688603480 
-0.033905285688603480 
-0.033905285688603480 
-0.033905285688603480 
-0.084580690242350320 
-0.033905285688603480 
-0.033905285688603480 
-0.033905285688603480 
-0.060603180877154710 
-0.033905285688603480 
-0.033905285688603480 
-0.033905285688603480 
-0.033905285688603480 
-0.033905285688603480 
-0.030301591200553948 
-0.075829146993338430 
-0.12620228681439555 
-0.049497560618340450 
-0.12340109149104388 
-0.033905285688603480 
-0.033905285688603480 
-0.061219546776706164 
-0.033905285688603480 
-0.048049254661794556 
-0.051197285216503760 
-0.033905285688603480 
-0.047635583982403670 
-0.11183450081030376 
-0.27629297090460286 
-0.063113290237169160 
-0.033905285688603480 
-0.084669744972366100 
-0.084669744972366100 
-0.048049254661794556 
-0.033905285688603480 
-0.033905285688603480 
-0.033905285688603480 
-0.051197285216503760 
-0.041750036383686210 
-0.13998122800869814 
-0.16491966455080936 
-0.093292215455516800 
-0.060603180877154710 
-0.13232579974013206 
-0.061219546776706164 
-0.11794175472755010 
-0.073569610407960030 
-0.16649023866067600 
-0.073569610407960030 
-0.13524204397684056 
-0.048049254661794556 
-0.033905285688603480 
-0.36397818251840850 
-0.18303444012844805 
-0.44559893057707350 
-0.10240116466419052 
-0.085150557647703120 
-0.25545152105136626 
-0.48824462665241786 
-0.10240116466419052 
-0.091517243628461860 
-0.24764044639427366 
-0.10240116466419052 
-0.16923310636377698 
-0.29093164720864010 
-0.091517243628461860 
-0.27747662089186703 
-0.10240116466419052 
-0.30493780620856864 
-0.10240116466419052 
-0.21312555890788829 
-0.080633321926253600 
-0.10240116466419052 
-0.20616785664412685 
-0.091517243628461860 
-0.066245559157458040 
-0.10240116466419052 
-0.79972918590962520 
-0.080633321926253600 
-0.10240116466419052 
-0.11829251837453099 
-0.074266635592391730 
-0.11829251837453099 
-0.12625016920197707 
-0.10240116466419052 
-0.32253296513389050 
-0.39597209071653900 
-0.085150557647703120 
-0.091517243628461860 
-0.10240116466419052 
-0.11006312619287824 
-0.091517243628461860 
-0.17803665924469206 
-0.10240116466419052 
-0.23815779097680500 
-0.10240116466419052 
-0.091517243628461860 
-0.10240116466419052 
-0.10240116466419052 
-0.085150557647703120 
-0.29208510494595570 
-0.22137131123360992 
-0.18364780979447118 
-0.055449487632923254 
-0.073617663825364820 
-0.67710472069906500 
-0.13158609625548412 
-0.073617663825364820 
-0.065793056388807250 
-0.073617663825364820 
-0.073617663825364820 
-0.16593635660898637 
-0.20738995576940010 
-0.13157385906952120 
-0.13158609625548412 
-0.26695655606679775 
-0.13158609625548412 
-0.073617663825364820 
-0.073617663825364820 
-0.27724724023084013 
-0.13158609625548412 
-0.13158609625548412 
-0.13158609625548412 
-0.13158609625548412 
-0.055449487632923254 
-0.073617663825364820 
-0.073617663825364820 
-0.073617663825364820 
-0.073617663825364820 
-0.061215954345452836 
